<?xml version="1.0"?>
<opencv_storage>
<cascade>
  <stageType>BOOST</stageType>
  <featureType>LBP</featureType>
  <height>20</height>
  <width>20</width>
  <stageParams>
    <boostType>GAB</boostType>
    <minHitRate>9.9000000953674316e-01</minHitRate>
    <maxFalseAlarm>5.0000000000000000e-01</maxFalseAlarm>
    <weightTrimRate>9.4999999999999996e-01</weightTrimRate>
    <maxDepth>1</maxDepth>
    <maxWeakCount>100</maxWeakCount></stageParams>
  <featureParams>
    <maxCatCount>256</maxCatCount>
    <featSize>1</featSize></featureParams>
  <stageNum>13</stageNum>
  <stages>
    <!-- stage 0 -->
    <_>
      <maxWeakCount>3</maxWeakCount>
      <stageThreshold>-1.0268735885620117e+00</stageThreshold>
      <weakClassifiers>
        <_>
          <internalNodes>
            0 -1 38 -1073741825 800846779 -33562625 -1073741825 -1048577
            1073479423 -67108865 -1073741825</internalNodes>
          <leafValues>
            -8.6091792583465576e-01 8.0938065052032471e-01</leafValues></_>
        <_>
          <internalNodes>
            0 -1 19 -1 -67372053 -71442977 -270861 -67388673 855318699
            -68158721 872362747</internalNodes>
          <leafValues>
            -9.0221810340881348e-01 6.8886202573776245e-01</leafValues></_>
        <_>
          <internalNodes>
            0 -1 1 -1 -45 -102760449 -9 -264201 -2098193 -786601
            -143165577</internalNodes>
          <leafValues>
            -7.6074987649917603e-01 7.3626250028610229e-01</leafValues></_></weakClassifiers></_>
    <!-- stage 1 -->
    <_>
      <maxWeakCount>3</maxWeakCount>
      <stageThreshold>-8.1024563312530518e-01</stageThreshold>
      <weakClassifiers>
        <_>
          <internalNodes>
            0 -1 45 -1 -1041 -141296129 -2081 -18874625 -141557873
            -86245377 -1996488705</internalNodes>
          <leafValues>
            -7.7764976024627686e-01 7.6451921463012695e-01</leafValues></_>
        <_>
          <internalNodes>
            0 -1 32 1006632959 1069546431 -544079873 1071643127
            -20972545 1073732607 -71303169 -1073755473</internalNodes>
          <leafValues>
            -7.6231324672698975e-01 7.1958386898040771e-01</leafValues></_>
        <_>
          <internalNodes>
            0 -1 2 -262145 -11781 -8536065 -1033 -70255617 -82177
            -1179657 -559243</internalNodes>
          <leafValues>
            -7.1704071760177612e-01 7.2971737384796143e-01</leafValues></_></weakClassifiers></_>
    <!-- stage 2 -->
    <_>
      <maxWeakCount>3</maxWeakCount>
      <stageThreshold>-9.0218132734298706e-01</stageThreshold>
      <weakClassifiers>
        <_>
          <internalNodes>
            0 -1 50 -1 1069277179 -35661825 -1073750305 -77594625
            -1109404177 -2099269 -1073741825</internalNodes>
          <leafValues>
            -7.6840394735336304e-01 6.2660443782806396e-01</leafValues></_>
        <_>
          <internalNodes>
            0 -1 26 2147442687 2147319807 -32769 2147434429 -176129
            -1097729 -335839233 -4194305</internalNodes>
          <leafValues>
            -6.6853290796279907e-01 7.0184522867202759e-01</leafValues></_>
        <_>
          <internalNodes>
            0 -1 31 -2490371 -3293203 -685769217 -8193 -4195329 -401473
            -1359020033 13172651</internalNodes>
          <leafValues>
            -8.3562254905700684e-01 5.5295926332473755e-01</leafValues></_></weakClassifiers></_>
    <!-- stage 3 -->
    <_>
      <maxWeakCount>3</maxWeakCount>
      <stageThreshold>-8.9642858505249023e-01</stageThreshold>
      <weakClassifiers>
        <_>
          <internalNodes>
            0 -1 16 -131073 -2367553 -12320769 -2379321 2074824703
            2145090283 2147188735 -46165</internalNodes>
          <leafValues>
            -8.1229346990585327e-01 5.3560209274291992e-01</leafValues></_>
        <_>
          <internalNodes>
            0 -1 28 -8388609 -167775237 -2097185 -11 -67108865 -1055809
            -16777473 -33727163</internalNodes>
          <leafValues>
            -6.8121111392974854e-01 6.1447644233703613e-01</leafValues></_>
        <_>
          <internalNodes>
            0 -1 48 -2097425 -41943041 -557842433 553639551 -54538636
            -67178597 -17105185 -50331649</internalNodes>
          <leafValues>
            -6.4046406745910645e-01 5.9707605838775635e-01</leafValues></_></weakClassifiers></_>
    <!-- stage 4 -->
    <_>
      <maxWeakCount>5</maxWeakCount>
      <stageThreshold>-1.0772466659545898e+00</stageThreshold>
      <weakClassifiers>
        <_>
          <internalNodes>
            0 -1 9 -1 -34603025 -9 -1 -524289 -273 -2185 -134742025</internalNodes>
          <leafValues>
            -7.1021842956542969e-01 6.1931288242340088e-01</leafValues></_>
        <_>
          <internalNodes>
            0 -1 52 -5 -1884293206 -2105347 -268435457 -1 1879047679
            -6561793 -536870913</internalNodes>
          <leafValues>
            -6.4779347181320190e-01 6.4357799291610718e-01</leafValues></_>
        <_>
          <internalNodes>
            0 -1 11 -4194305 -205268485 -657982213 -203491585 2135383663
            1864989535 2104065887 2147450879</internalNodes>
          <leafValues>
            -8.4471386671066284e-01 4.2725354433059692e-01</leafValues></_>
        <_>
          <internalNodes>
            0 -1 37 -8193 -538976273 -134745217 -393357 -137168134 -4193
            -1096089857 -520159233</internalNodes>
          <leafValues>
            -6.6392087936401367e-01 5.3064453601837158e-01</leafValues></_>
        <_>
          <internalNodes>
            0 -1 39 1073479671 -1148272934 -1352715809 -1074004747
            1073198847 -1082656020 1002401022 -1073741825</internalNodes>
          <leafValues>
            -6.6259634494781494e-01 5.1743257045745850e-01</leafValues></_></weakClassifiers></_>
    <!-- stage 5 -->
    <_>
      <maxWeakCount>5</maxWeakCount>
      <stageThreshold>-1.1242140531539917e+00</stageThreshold>
      <weakClassifiers>
        <_>
          <internalNodes>
            0 -1 40 -5 -1346652760 -8399361 -9729 -610271233 -1073751127
            -38020113 -2053</internalNodes>
          <leafValues>
            -7.2090005874633789e-01 4.5250201225280762e-01</leafValues></_>
        <_>
          <internalNodes>
            0 -1 5 -153158149 -428289 -639643169 -8237 -637759489
            -2110209 -1645625345 -134924425</internalNodes>
          <leafValues>
            -6.9703626632690430e-01 4.9069169163703918e-01</leafValues></_>
        <_>
          <internalNodes>
            0 -1 12 -1281 -34735233 -37225218 -69870721 -8421553
            2105277055 -8388737 -8913025</internalNodes>
          <leafValues>
            -6.0413604974746704e-01 5.5787456035614014e-01</leafValues></_>
        <_>
          <internalNodes>
            0 -1 49 -1029 498856447 -774904442 1073477595 -177480329
            932234439 -111677956 1073741807</internalNodes>
          <leafValues>
            -7.3855930566787720e-01 4.1536092758178711e-01</leafValues></_>
        <_>
          <internalNodes>
            0 -1 7 -203489366 -5834296 -150541998 -1055542 -1142030865
            -389039625 1943500791 -135006249</internalNodes>
          <leafValues>
            -6.2046569585800171e-01 4.7440704703330994e-01</leafValues></_></weakClassifiers></_>
    <!-- stage 6 -->
    <_>
      <maxWeakCount>6</maxWeakCount>
      <stageThreshold>-1.0567098855972290e+00</stageThreshold>
      <weakClassifiers>
        <_>
          <internalNodes>
            0 -1 0 -4194321 -35664397 1238231551 -672140297 -274727169
            -609231377 -303038721 -7177</internalNodes>
          <leafValues>
            -6.0596573352813721e-01 5.6352460384368896e-01</leafValues></_>
        <_>
          <internalNodes>
            0 -1 34 1068761085 -1073881608 -279043 -259 -1 -17
            -1107312641 -1</internalNodes>
          <leafValues>
            -4.5523241162300110e-01 7.1947753429412842e-01</leafValues></_>
        <_>
          <internalNodes>
            0 -1 36 -16787235 -536873001 -283903241 -92553217 -29360440
            -1067301 -93602050 -83886081</internalNodes>
          <leafValues>
            -5.3029119968414307e-01 5.8319902420043945e-01</leafValues></_>
        <_>
          <internalNodes>
            0 -1 59 -2097310 -1361316881 -1082263574 -286261266
            -740294729 -1677983757 -72877060 -134234625</internalNodes>
          <leafValues>
            -5.8031022548675537e-01 5.0884354114532471e-01</leafValues></_>
        <_>
          <internalNodes>
            0 -1 22 -500483 -1048705 -1098908805 -34078721 -369442
            -33587201 -539295745 -1</internalNodes>
          <leafValues>
            -4.5091086626052856e-01 5.5593848228454590e-01</leafValues></_>
        <_>
          <internalNodes>
            0 -1 25 -103089678 -101999624 -542118529 -35659788 -71041605
            -69207565 -374363665 -587246251</internalNodes>
          <leafValues>
            -5.3000259399414063e-01 5.1486206054687500e-01</leafValues></_></weakClassifiers></_>
    <!-- stage 7 -->
    <_>
      <maxWeakCount>5</maxWeakCount>
      <stageThreshold>-1.0102784633636475e+00</stageThreshold>
      <weakClassifiers>
        <_>
          <internalNodes>
            0 -1 53 -1078263809 -131240 -1109397505 -1127 -67110501
            -1319985 -67110145 -17473</internalNodes>
          <leafValues>
            -6.1803084611892700e-01 4.4986367225646973e-01</leafValues></_>
        <_>
          <internalNodes>
            0 -1 13 -770 -136316001 -668403717 -15085093 -47906
            -78159189 -3473409 -4194305</internalNodes>
          <leafValues>
            -5.1804888248443604e-01 5.6583827733993530e-01</leafValues></_>
        <_>
          <internalNodes>
            0 -1 33 -8402117 -15337655 -1089773709 -37136569 -92816642
            -5272897 -85983553 16514015</internalNodes>
          <leafValues>
            -7.1272528171539307e-01 3.8309663534164429e-01</leafValues></_>
        <_>
          <internalNodes>
            0 -1 46 -170656306 -572788515 -486346463 -49811139
            -423169643 -74735103 -994062898 218103791</internalNodes>
          <leafValues>
            -7.4522119760513306e-01 3.0791121721267700e-01</leafValues></_>
        <_>
          <internalNodes>
            0 -1 2 -242288641 -68172342 -787621385 -27917 -1952723474
            -1097890886 -1701315585 -1052681</internalNodes>
          <leafValues>
            -4.7525602579116821e-01 5.3061532974243164e-01</leafValues></_></weakClassifiers></_>
    <!-- stage 8 -->
    <_>
      <maxWeakCount>4</maxWeakCount>
      <stageThreshold>-7.7182197570800781e-01</stageThreshold>
      <weakClassifiers>
        <_>
          <internalNodes>
            0 -1 23 -11469313 2132136157 440998079 2136318159 -325261121
            2074774664 -1433872246 2142931083</internalNodes>
          <leafValues>
            -8.1000804901123047e-01 2.9987019300460815e-01</leafValues></_>
        <_>
          <internalNodes>
            0 -1 51 -41156710 -1080903504 1938938992 -38036080
            -697841160 -1078605769 -2002923381 -1073741921</internalNodes>
          <leafValues>
            -6.3111883401870728e-01 3.8748791813850403e-01</leafValues></_>
        <_>
          <internalNodes>
            0 -1 10 -182528066 1368514688 -531520946 -715785975
            1464419580 1738038395 2106285483 2147449855</internalNodes>
          <leafValues>
            -7.4809527397155762e-01 3.1818506121635437e-01</leafValues></_>
        <_>
          <internalNodes>
            0 -1 27 -1409097312 -7625260 -471154191 -236203536
            -895235588 -18895681 -306869313 -33347</internalNodes>
          <leafValues>
            -5.7913422584533691e-01 3.9879342913627625e-01</leafValues></_></weakClassifiers></_>
    <!-- stage 9 -->
    <_>
      <maxWeakCount>6</maxWeakCount>
      <stageThreshold>-1.2746638059616089e+00</stageThreshold>
      <weakClassifiers>
        <_>
          <internalNodes>
            0 -1 20 -257 -3277861 -1769505 -8402949 -569618 -4228129
            -269516801 -4194305</internalNodes>
          <leafValues>
            -6.2023282051086426e-01 4.2907905578613281e-01</leafValues></_>
        <_>
          <internalNodes>
            0 -1 47 -297 -2140865 -146835593 -33557593 -761988466
            -15774177 -23134530 -1191444481</internalNodes>
          <leafValues>
            -5.0743484497070313e-01 4.9212062358856201e-01</leafValues></_>
        <_>
          <internalNodes>
            0 -1 24 -289675279 -638606353 -471872001 -286977 -537920769
            -84951377 -1 -41611</internalNodes>
          <leafValues>
            -5.8287519216537476e-01 3.9889410138130188e-01</leafValues></_>
        <_>
          <internalNodes>
            0 -1 41 -1212416016 -48360192 -536903749 -640287627
            -1342242881 -131073 -1073758225 -1063939</internalNodes>
          <leafValues>
            -4.1160216927528381e-01 5.5675500631332397e-01</leafValues></_>
        <_>
          <internalNodes>
            0 -1 57 -548929952 -1825839653 -481861948 -2016935941
            1457061968 -1010481813 -294126676 -1360003115</internalNodes>
          <leafValues>
            -5.1275110244750977e-01 4.2764720320701599e-01</leafValues></_>
        <_>
          <internalNodes>
            0 -1 15 -538968338 -52635137 -589316354 -67379281 2147316239
            2003533951 -33563393 -134222341</internalNodes>
          <leafValues>
            -5.1150631904602051e-01 3.7846308946609497e-01</leafValues></_></weakClassifiers></_>
    <!-- stage 10 -->
    <_>
      <maxWeakCount>6</maxWeakCount>
      <stageThreshold>-1.3880755901336670e+00</stageThreshold>
      <weakClassifiers>
        <_>
          <internalNodes>
            0 -1 35 2070401247 -2403949 -686618689 -14723201 -155454818
            -545809 -85008641 -18874373</internalNodes>
          <leafValues>
            -5.4811090230941772e-01 4.3670463562011719e-01</leafValues></_>
        <_>
          <internalNodes>
            0 -1 17 -539755525 -2361381 -148276771 -12369771 1537935855
            2142808506 2073660415 2074838235</internalNodes>
          <leafValues>
            -8.2130330801010132e-01 2.9625791311264038e-01</leafValues></_>
        <_>
          <internalNodes>
            0 -1 60 -674520414 -907048766 353046576 -1836989 -343743753
            -1883601670 -1152392469 -526337</internalNodes>
          <leafValues>
            -4.7254034876823425e-01 4.1808882355690002e-01</leafValues></_>
        <_>
          <internalNodes>
            0 -1 3 -673713153 -775438143 -2112585545 -577781049
            -1701854258 -2012690295 -125402673 2003265399</internalNodes>
          <leafValues>
            -7.4356514215469360e-01 3.1106916069984436e-01</leafValues></_>
        <_>
          <internalNodes>
            0 -1 30 1944996062 2138853857 687400382 418405252
            -1434435404 -74382953 -100521762 -84148805</internalNodes>
          <leafValues>
            -5.3569686412811279e-01 3.1405863165855408e-01</leafValues></_>
        <_>
          <internalNodes>
            0 -1 56 -549203302 2044707619 1376174835 676198099
            -795639160 -560230349 -958086518 -258999601</internalNodes>
          <leafValues>
            -4.3905451893806458e-01 4.0054765343666077e-01</leafValues></_></weakClassifiers></_>
    <!-- stage 11 -->
    <_>
      <maxWeakCount>6</maxWeakCount>
      <stageThreshold>-9.5222544670104980e-01</stageThreshold>
      <weakClassifiers>
        <_>
          <internalNodes>
            0 -1 38 -539492353 1069545974 -715794985 1040178165
            -753799731 1068748679 -480197985 -1073742625</internalNodes>
          <leafValues>
            -7.6569819450378418e-01 1.5703761577606201e-01</leafValues></_>
        <_>
          <internalNodes>
            0 -1 21 -606080515 -8715809 1058999095 -11037897 -653002567
            -74474565 -55710465 1440725679</internalNodes>
          <leafValues>
            -6.3012856245040894e-01 3.0003505945205688e-01</leafValues></_>
        <_>
          <internalNodes>
            0 -1 18 -8402194 -545394211 -234824450 -44253729 -122030066
            2134419647 -623184897 -3151361</internalNodes>
          <leafValues>
            -5.4518246650695801e-01 3.5401952266693115e-01</leafValues></_>
        <_>
          <internalNodes>
            0 -1 8 -984878870 -1052501268 -1663115984 -143666721
            -525811730 -1147971078 1723750386 -135807749</internalNodes>
          <leafValues>
            -5.4850035905838013e-01 3.4701335430145264e-01</leafValues></_>
        <_>
          <internalNodes>
            0 -1 42 -1092028970 -1076957872 -2536245 -1075889428
            -1073745969 -309607037 -645805108 1071581435</internalNodes>
          <leafValues>
            -5.6945860385894775e-01 2.9459783434867859e-01</leafValues></_>
        <_>
          <internalNodes>
            0 -1 55 -600453538 -134891821 -530845547 -388244541
            436456128 -187002037 -387124574 -118498609</internalNodes>
          <leafValues>
            -4.6038702130317688e-01 3.4717261791229248e-01</leafValues></_></weakClassifiers></_>
    <!-- stage 12 -->
    <_>
      <maxWeakCount>8</maxWeakCount>
      <stageThreshold>-1.1892151832580566e+00</stageThreshold>
      <weakClassifiers>
        <_>
          <internalNodes>
            0 -1 44 -85992296 -70001315 1526855979 -11012681 -86576510
            -675379957 -223165718 -83886113</internalNodes>
          <leafValues>
            -5.8827668428421021e-01 2.1201758086681366e-01</leafValues></_>
        <_>
          <internalNodes>
            0 -1 14 -203424513 -208408226 -1677658657 -515516245
            2080065770 2039178479 697006827 -338724209</internalNodes>
          <leafValues>
            -5.7732295989990234e-01 2.8909298777580261e-01</leafValues></_>
        <_>
          <internalNodes>
            0 -1 54 -44829982 -406324414 -541723344 -34079699 -293418803
            196051428 -75437282 -265829</internalNodes>
          <leafValues>
            -5.3236263990402222e-01 3.1740435957908630e-01</leafValues></_>
        <_>
          <internalNodes>
            0 -1 6 -783097678 -263470922 1086370135 -662441537
            -1034555234 -1604812594 1648451402 2069854831</internalNodes>
          <leafValues>
            -7.7305966615676880e-01 2.2297246754169464e-01</leafValues></_>
        <_>
          <internalNodes>
            0 -1 29 -958267104 -2046644270 85217431 -13741581
            -1197487151 -1142808924 -874310177 -72272025</internalNodes>
          <leafValues>
            -4.5586213469505310e-01 3.2072088122367859e-01</leafValues></_>
        <_>
          <internalNodes>
            0 -1 58 -168043816 389197266 -184017644 -1074269812
            1964318808 -2121612651 1152468112 -1074792551</internalNodes>
          <leafValues>
            -4.6819493174552917e-01 3.0141904950141907e-01</leafValues></_>
        <_>
          <internalNodes>
            0 -1 4 -775466630 -744644197 -2130106121 -955283007
            -1160779525 -1198815093 -1976921409 1740105591</internalNodes>
          <leafValues>
            -5.7637166976928711e-01 2.2751012444496155e-01</leafValues></_>
        <_>
          <internalNodes>
            0 -1 43 -1332484592 -704283392 1959229556 -706981868
            975358910 -7230573 467891855 -339752972</internalNodes>
          <leafValues>
            -4.2041739821434021e-01 3.5200363397598267e-01</leafValues></_></weakClassifiers></_></stages>
  <features>
    <_>
      <rect>
        0 0 2 4</rect></_>
    <_>
      <rect>
        0 0 2 5</rect></_>
    <_>
      <rect>
        0 0 3 3</rect></_>
    <_>
      <rect>
        0 0 3 5</rect></_>
    <_>
      <rect>
        0 0 4 3</rect></_>
    <_>
      <rect>
        0 0 5 2</rect></_>
    <_>
      <rect>
        0 1 2 6</rect></_>
    <_>
      <rect>
        0 3 2 2</rect></_>
    <_>
      <rect>
        0 4 2 1</rect></_>
    <_>
      <rect>
        0 4 2 2</rect></_>
    <_>
      <rect>
        0 5 2 5</rect></_>
    <_>
      <rect>
        0 5 3 5</rect></_>
    <_>
      <rect>
        0 11 2 2</rect></_>
    <_>
      <rect>
        0 11 2 3</rect></_>
    <_>
      <rect>
        0 11 3 3</rect></_>
    <_>
      <rect>
        0 12 2 1</rect></_>
    <_>
      <rect>
        0 14 5 2</rect></_>
    <_>
      <rect>
        0 14 6 2</rect></_>
    <_>
      <rect>
        0 15 3 1</rect></_>
    <_>
      <rect>
        1 1 6 6</rect></_>
    <_>
      <rect>
        1 14 3 2</rect></_>
    <_>
      <rect>
        2 0 6 2</rect></_>
    <_>
      <rect>
        2 14 2 2</rect></_>
    <_>
      <rect>
        2 14 6 2</rect></_>
    <_>
      <rect>
        3 0 1 3</rect></_>
    <_>
      <rect>
        3 0 2 2</rect></_>
    <_>
      <rect>
        3 14 2 2</rect></_>
    <_>
      <rect>
        4 0 1 2</rect></_>
    <_>
      <rect>
        4 0 2 2</rect></_>
    <_>
      <rect>
        4 0 3 1</rect></_>
    <_>
      <rect>
        4 17 2 1</rect></_>
    <_>
      <rect>
        5 0 5 3</rect></_>
    <_>
      <rect>
        5 14 5 2</rect></_>
    <_>
      <rect>
        8 0 4 3</rect></_>
    <_>
      <rect>
        9 17 2 1</rect></_>
    <_>
      <rect>
        10 0 3 2</rect></_>
    <_>
      <rect>
        11 0 3 2</rect></_>
    <_>
      <rect>
        11 0 3 3</rect></_>
    <_>
      <rect>
        11 11 3 3</rect></_>
    <_>
      <rect>
        11 14 2 2</rect></_>
    <_>
      <rect>
        11 14 3 2</rect></_>
    <_>
      <rect>
        12 17 1 1</rect></_>
    <_>
      <rect>
        13 14 1 2</rect></_>
    <_>
      <rect>
        13 17 1 1</rect></_>
    <_>
      <rect>
        14 0 2 3</rect></_>
    <_>
      <rect>
        14 0 2 5</rect></_>
    <_>
      <rect>
        14 0 2 6</rect></_>
    <_>
      <rect>
        14 1 2 3</rect></_>
    <_>
      <rect>
        14 3 2 2</rect></_>
    <_>
      <rect>
        14 5 2 5</rect></_>
    <_>
      <rect>
        14 8 2 4</rect></_>
    <_>
      <rect>
        14 11 2 3</rect></_>
    <_>
      <rect>
        14 12 2 2</rect></_>
    <_>
      <rect>
        14 14 1 2</rect></_>
    <_>
      <rect>
        14 14 2 1</rect></_>
    <_>
      <rect>
        17 4 1 2</rect></_>
    <_>
      <rect>
        17 5 1 2</rect></_>
    <_>
      <rect>
        17 5 1 4</rect></_>
    <_>
      <rect>
        17 7 1 4</rect></_>
    <_>
      <rect>
        17 10 1 1</rect></_>
    <_>
      <rect>
        17 12 1 1</rect></_></features></cascade>
</opencv_storage>
