<?xml version="1.0"?>
<opencv_storage>
<cascade>
  <stageType>BOOST</stageType>
  <featureType>LBP</featureType>
  <height>30</height>
  <width>30</width>
  <stageParams>
    <boostType>GAB</boostType>
    <minHitRate>9.9000000953674316e-01</minHitRate>
    <maxFalseAlarm>3.0000001192092896e-01</maxFalseAlarm>
    <weightTrimRate>9.4999999999999996e-01</weightTrimRate>
    <maxDepth>1</maxDepth>
    <maxWeakCount>100</maxWeakCount></stageParams>
  <featureParams>
    <maxCatCount>256</maxCatCount>
    <featSize>1</featSize></featureParams>
  <stageNum>11</stageNum>
  <stages>
    <!-- stage 0 -->
    <_>
      <maxWeakCount>2</maxWeakCount>
      <stageThreshold>-2.7675655484199524e-01</stageThreshold>
      <weakClassifiers>
        <_>
          <internalNodes>
            0 -1 6 -136839169 -6565549 -1827421729 -12070441 -125044261
            -208961407 -888423941 1944056831</internalNodes>
          <leafValues>
            -9.7629398107528687e-01 8.6965107917785645e-01</leafValues></_>
        <_>
          <internalNodes>
            0 -1 19 -138939393 -11274785 -172402209 2136822495
            1808521983 2144060811 462148351 2147473407</internalNodes>
          <leafValues>
            -9.3431138992309570e-01 6.9953739643096924e-01</leafValues></_></weakClassifiers></_>
    <!-- stage 1 -->
    <_>
      <maxWeakCount>3</maxWeakCount>
      <stageThreshold>-8.8653874397277832e-01</stageThreshold>
      <weakClassifiers>
        <_>
          <internalNodes>
            0 -1 67 -1 530316799 -69206529 1073478143 -524321
            -1074003985 -3151905 -1073741857</internalNodes>
          <leafValues>
            -8.6083346605300903e-01 8.0979621410369873e-01</leafValues></_>
        <_>
          <internalNodes>
            0 -1 2 -1 -13 -129 -655401 -2098177 -25889 -33833473
            -134776969</internalNodes>
          <leafValues>
            -7.8412109613418579e-01 8.2333248853683472e-01</leafValues></_>
        <_>
          <internalNodes>
            0 -1 48 -8705 -3 -553648129 -131074 -16777988 -1 -16843010
            -1595932673</internalNodes>
          <leafValues>
            -7.2495174407958984e-01 7.5841587781906128e-01</leafValues></_></weakClassifiers></_>
    <!-- stage 2 -->
    <_>
      <maxWeakCount>3</maxWeakCount>
      <stageThreshold>-8.8960838317871094e-01</stageThreshold>
      <weakClassifiers>
        <_>
          <internalNodes>
            0 -1 56 -1 1069547519 -1 -1073741825 -1 2147483647 -1 -1</internalNodes>
          <leafValues>
            -8.1413912773132324e-01 6.9908386468887329e-01</leafValues></_>
        <_>
          <internalNodes>
            0 -1 5 -1 -1 -1 -13 -604110849 -8257 -196609 -143261833</internalNodes>
          <leafValues>
            -7.7258336544036865e-01 6.6571849584579468e-01</leafValues></_>
        <_>
          <internalNodes>
            0 -1 13 -4194305 -513 -131 -25 -545305377 -32769 -37089
            -32897</internalNodes>
          <leafValues>
            -7.0166379213333130e-01 6.9711405038833618e-01</leafValues></_></weakClassifiers></_>
    <!-- stage 3 -->
    <_>
      <maxWeakCount>6</maxWeakCount>
      <stageThreshold>-7.6079607009887695e-01</stageThreshold>
      <weakClassifiers>
        <_>
          <internalNodes>
            0 -1 75 -17 -526529 -2097289 -1912868909 -85983249
            -150997029 -20974677 -1358954497</internalNodes>
          <leafValues>
            -7.8226298093795776e-01 4.8106417059898376e-01</leafValues></_>
        <_>
          <internalNodes>
            0 -1 14 -257 -4260393 -236463113 -77726209 2080066783
            2109566975 -71335937 -32769</internalNodes>
          <leafValues>
            -7.2873163223266602e-01 5.1998746395111084e-01</leafValues></_>
        <_>
          <internalNodes>
            0 -1 57 -69206085 -1078984798 -35658753 -2097153 -2098177
            -1077944321 -2888257 -1049889</internalNodes>
          <leafValues>
            -5.4284417629241943e-01 6.4542442560195923e-01</leafValues></_>
        <_>
          <internalNodes>
            0 -1 33 -575539716 -36218054 -585548065 -2108129 -1434665729
            -67134529 -117440769 1088405503</internalNodes>
          <leafValues>
            -8.1239783763885498e-01 4.3314984440803528e-01</leafValues></_>
        <_>
          <internalNodes>
            0 -1 25 -541327617 -545458467 -96354310 -8306020 2009942764
            1604288442 2106490763 2142993035</internalNodes>
          <leafValues>
            -7.4180591106414795e-01 3.9420276880264282e-01</leafValues></_>
        <_>
          <internalNodes>
            0 -1 32 -1154310148 -749274203 -52700419 -33558915
            -153289729 -85983241 -4097 -1073741859</internalNodes>
          <leafValues>
            -5.9522986412048340e-01 4.6569010615348816e-01</leafValues></_></weakClassifiers></_>
    <!-- stage 4 -->
    <_>
      <maxWeakCount>7</maxWeakCount>
      <stageThreshold>-1.2080192565917969e+00</stageThreshold>
      <weakClassifiers>
        <_>
          <internalNodes>
            0 -1 69 -1 -1078198790 -167904327 -526593 -2367745 -2107201
            -69207361 -1</internalNodes>
          <leafValues>
            -6.9575291872024536e-01 4.4657534360885620e-01</leafValues></_>
        <_>
          <internalNodes>
            0 -1 1 -573571077 -36712477 -574631553 -33555725 -570692609
            -375456034 -1347426817 -2057</internalNodes>
          <leafValues>
            -5.8261013031005859e-01 5.7268220186233521e-01</leafValues></_>
        <_>
          <internalNodes>
            0 -1 59 -542122788 -40895779 -4720649 -8653537 -21700964
            -524577 -21053730 -251920897</internalNodes>
          <leafValues>
            -5.6850004196166992e-01 5.0708347558975220e-01</leafValues></_>
        <_>
          <internalNodes>
            0 -1 20 -306 -75529219 -119886098 -17048072 -335807666
            2080372863 -268502785 -283649</internalNodes>
          <leafValues>
            -5.7542145252227783e-01 4.5642432570457458e-01</leafValues></_>
        <_>
          <internalNodes>
            0 -1 70 -1146290692 -1613046471 -91363561 -1252000283
            -10256385 -304090312 -1075090950 -1073799827</internalNodes>
          <leafValues>
            -5.4605454206466675e-01 4.1709235310554504e-01</leafValues></_>
        <_>
          <internalNodes>
            0 -1 37 -560398348 -134916 -1014500473 -1027 -606078019
            -338181201 -1073750081 -1074054027</internalNodes>
          <leafValues>
            -6.1609572172164917e-01 3.2199949026107788e-01</leafValues></_>
        <_>
          <internalNodes>
            0 -1 71 -228085070 -1297944160 358941744 -177145936
            -275832845 -1342580507 -336451340 -1073881601</internalNodes>
          <leafValues>
            -5.3320986032485962e-01 4.0647453069686890e-01</leafValues></_></weakClassifiers></_>
    <!-- stage 5 -->
    <_>
      <maxWeakCount>6</maxWeakCount>
      <stageThreshold>-1.6742652654647827e+00</stageThreshold>
      <weakClassifiers>
        <_>
          <internalNodes>
            0 -1 52 1073741813 -1073741825 -1075838977 -1073742405
            1073741759 -4149 2142165931 -1057</internalNodes>
          <leafValues>
            -7.3507237434387207e-01 4.0933290123939514e-01</leafValues></_>
        <_>
          <internalNodes>
            0 -1 10 -102891521 -73460245 -272629761 -10757 -638850049
            -5263361 -1051657 -134746121</internalNodes>
          <leafValues>
            -6.6204190254211426e-01 4.6167314052581787e-01</leafValues></_>
        <_>
          <internalNodes>
            0 -1 66 -27263483 -14712835 -165675329 553512959 -26221140
            -167780469 -16778274 -184565761</internalNodes>
          <leafValues>
            -6.9235670566558838e-01 3.8282048702239990e-01</leafValues></_>
        <_>
          <internalNodes>
            0 -1 16 -83895042 -44597321 -502993201 -9701893 -235451184
            -17991425 -65794 -1</internalNodes>
          <leafValues>
            -5.4541623592376709e-01 4.8306033015251160e-01</leafValues></_>
        <_>
          <internalNodes>
            0 -1 36 -279421700 -2392353 -53707397 -1089983905 -539722241
            -36705566 -1108586773 -1075168262</internalNodes>
          <leafValues>
            -5.7113093137741089e-01 4.3569079041481018e-01</leafValues></_>
        <_>
          <internalNodes>
            0 -1 78 -1638502 799990194 -4379888 -272908829 1911860957
            1831466931 -78186023 -805310993</internalNodes>
          <leafValues>
            -6.2043887376785278e-01 3.9937397837638855e-01</leafValues></_></weakClassifiers></_>
    <!-- stage 6 -->
    <_>
      <maxWeakCount>6</maxWeakCount>
      <stageThreshold>-1.4779572486877441e+00</stageThreshold>
      <weakClassifiers>
        <_>
          <internalNodes>
            0 -1 3 -1 -540024837 -108011553 -1033 -4464641 -605029665
            -67108897 -4233</internalNodes>
          <leafValues>
            -7.0890891551971436e-01 3.9967793226242065e-01</leafValues></_>
        <_>
          <internalNodes>
            0 -1 18 -2097153 -655393 -686555169 -612507649 -1356081
            2127231999 -73695233 -1048577</internalNodes>
          <leafValues>
            -6.0489904880523682e-01 5.0262296199798584e-01</leafValues></_>
        <_>
          <internalNodes>
            0 -1 72 -1073807361 -131083 -10493953 -33 -1140850739
            -204746541 -1208094785 -17</internalNodes>
          <leafValues>
            -5.2083027362823486e-01 5.4533070325851440e-01</leafValues></_>
        <_>
          <internalNodes>
            0 -1 40 -8388641 -46137473 -16515241 -84150405 -149159937
            -93851649 -346685441 469762047</internalNodes>
          <leafValues>
            -7.5625646114349365e-01 3.0656951665878296e-01</leafValues></_>
        <_>
          <internalNodes>
            0 -1 76 -2625910 -44960409 -167547393 679211999 -91567458
            -5768519 -17826201 -50332749</internalNodes>
          <leafValues>
            -5.1265507936477661e-01 4.0952301025390625e-01</leafValues></_>
        <_>
          <internalNodes>
            0 -1 29 -565255426 -10692489 -628162945 -556641 -50444728
            -12558467 -540647442 -3149861</internalNodes>
          <leafValues>
            -5.4475545883178711e-01 3.8667011260986328e-01</leafValues></_></weakClassifiers></_>
    <!-- stage 7 -->
    <_>
      <maxWeakCount>10</maxWeakCount>
      <stageThreshold>-1.2216061353683472e+00</stageThreshold>
      <weakClassifiers>
        <_>
          <internalNodes>
            0 -1 0 -574694942 -203439408 1276451583 -637544236
            -1997940309 -913601313 -1702376481 -527369</internalNodes>
          <leafValues>
            -7.1171599626541138e-01 1.8245160579681396e-01</leafValues></_>
        <_>
          <internalNodes>
            0 -1 50 -253766435 -3208237 -99151589 -15265385 -32916852
            -71345873 -22299905 -364904453</internalNodes>
          <leafValues>
            -5.2572488784790039e-01 4.1854706406593323e-01</leafValues></_>
        <_>
          <internalNodes>
            0 -1 42 -673712393 1069270174 -997109684 1072677253
            -104605445 1006342352 -502644053 1072416910</internalNodes>
          <leafValues>
            -7.4863106012344360e-01 2.5450256466865540e-01</leafValues></_>
        <_>
          <internalNodes>
            0 -1 77 -210524742 356106626 -116076302 120308202
            -1070595142 -1275031547 -451882780 234878399</internalNodes>
          <leafValues>
            -7.5004547834396362e-01 2.5657194852828979e-01</leafValues></_>
        <_>
          <internalNodes>
            0 -1 17 -56524648 1943998538 545297034 1444038885 -480771952
            -485555629 -1002780516 -673530113</internalNodes>
          <leafValues>
            -4.9520274996757507e-01 3.6037021875381470e-01</leafValues></_>
        <_>
          <internalNodes>
            0 -1 64 -1147078704 -730574560 -1618479687 -676900860
            -558662690 -58478528 -1282751848 -1108385600</internalNodes>
          <leafValues>
            -4.9778583645820618e-01 3.3923429250717163e-01</leafValues></_>
        <_>
          <internalNodes>
            0 -1 11 -115614738 -727088082 -716451456 -537812504
            -1678873617 1053329630 -609572874 -525337</internalNodes>
          <leafValues>
            -4.8446172475814819e-01 3.3334025740623474e-01</leafValues></_>
        <_>
          <internalNodes>
            0 -1 82 -1719701478 -78164131 2129623742 853639135 731270158
            393052101 -1210260800 -146055993</internalNodes>
          <leafValues>
            -3.6791354417800903e-01 4.3603333830833435e-01</leafValues></_>
        <_>
          <internalNodes>
            0 -1 28 -126684422 -539425654 151012687 -675445806
            -1735882497 -91314034 -83785045 1430614290</internalNodes>
          <leafValues>
            -6.8692785501480103e-01 2.1146883070468903e-01</leafValues></_>
        <_>
          <internalNodes>
            0 -1 51 -1623478473 -1361056011 -1789667873 1853781479
            1911766903 -554971653 2046605143 -386334859</internalNodes>
          <leafValues>
            -4.2171707749366760e-01 3.6894032359123230e-01</leafValues></_></weakClassifiers></_>
    <!-- stage 8 -->
    <_>
      <maxWeakCount>13</maxWeakCount>
      <stageThreshold>-1.1446219682693481e+00</stageThreshold>
      <weakClassifiers>
        <_>
          <internalNodes>
            0 -1 30 -917761 -45539949 -75341955 2101440565 -68006154
            -123369080 -25034753 -67376657</internalNodes>
          <leafValues>
            -5.7549482583999634e-01 2.6940965652465820e-01</leafValues></_>
        <_>
          <internalNodes>
            0 -1 35 -13961320 -949233675 866096111 -1314596 -332684881
            -305284737 -277882193 -4995</internalNodes>
          <leafValues>
            -5.4376155138015747e-01 3.0477565526962280e-01</leafValues></_>
        <_>
          <internalNodes>
            0 -1 74 -17838902 -541077559 -16842817 -1241776137
            -125989682 -4194321 -19071266 -83886449</internalNodes>
          <leafValues>
            -3.9346554875373840e-01 4.2135015130043030e-01</leafValues></_>
        <_>
          <internalNodes>
            0 -1 22 -544015649 -804855233 824232939 -2119319269
            2080726174 -1064801245 1990139867 2146402047</internalNodes>
          <leafValues>
            -7.0320594310760498e-01 2.4352870881557465e-01</leafValues></_>
        <_>
          <internalNodes>
            0 -1 80 -6949138 -1016084728 597260944 -47188174 -637011460
            -657657460 1614894836 -10781</internalNodes>
          <leafValues>
            -4.2818778753280640e-01 3.6780756711959839e-01</leafValues></_>
        <_>
          <internalNodes>
            0 -1 39 -599883632 -1671954296 436281100 -1123169003
            1519937605 2075276328 -1097221048 1076187135</internalNodes>
          <leafValues>
            -6.6055631637573242e-01 1.9110195338726044e-01</leafValues></_>
        <_>
          <internalNodes>
            0 -1 54 790452407 712738807 2019544567 775617447 1910468159
            -1358959617 -4251787 -1401148428</internalNodes>
          <leafValues>
            -5.6447321176528931e-01 1.9600252807140350e-01</leafValues></_>
        <_>
          <internalNodes>
            0 -1 24 -397557010 -792685937 -2142058302 1457406173
            -1748452503 -237706003 -490618674 -194663709</internalNodes>
          <leafValues>
            -3.8784882426261902e-01 3.5809409618377686e-01</leafValues></_>
        <_>
          <internalNodes>
            0 -1 68 -236989990 529240434 1078013981 1070851271
            -1056866174 1342525441 -251346805 1070590971</internalNodes>
          <leafValues>
            -6.1403322219848633e-01 2.2391529381275177e-01</leafValues></_>
        <_>
          <internalNodes>
            0 -1 4 -808545030 -2116087334 1166098521 -1759575820
            -1073118550 -1966423377 -2138329489 2011687543</internalNodes>
          <leafValues>
            -5.8170807361602783e-01 2.1765884757041931e-01</leafValues></_>
        <_>
          <internalNodes>
            0 -1 85 -39241864 -416612474 1985303952 -686524031
            -401333376 1605196216 -729058944 -967843824</internalNodes>
          <leafValues>
            -3.7213972210884094e-01 3.6917191743850708e-01</leafValues></_>
        <_>
          <internalNodes>
            0 -1 21 -2113140736 646059426 -804318204 165904 595485199
            1389150407 -795812130 40622847</internalNodes>
          <leafValues>
            -4.3313086032867432e-01 3.0611357092857361e-01</leafValues></_>
        <_>
          <internalNodes>
            0 -1 73 -690480940 -1651811809 -1878388589 -782650633
            1221644504 -1734830078 1744951500 -29100864</internalNodes>
          <leafValues>
            -3.8749688863754272e-01 3.2571145892143250e-01</leafValues></_></weakClassifiers></_>
    <!-- stage 9 -->
    <_>
      <maxWeakCount>14</maxWeakCount>
      <stageThreshold>-1.1246407032012939e+00</stageThreshold>
      <weakClassifiers>
        <_>
          <internalNodes>
            0 -1 26 -8389889 -208824133 -1019092493 -709770855 -67350786
            2072721683 -349470725 -6293349</internalNodes>
          <leafValues>
            -6.7846608161926270e-01 4.2872454971075058e-02</leafValues></_>
        <_>
          <internalNodes>
            0 -1 65 -149433605 -749395959 1362182463 -145262719
            -635814453 -8295160 -166264929 16776031</internalNodes>
          <leafValues>
            -6.4878618717193604e-01 1.8920212984085083e-01</leafValues></_>
        <_>
          <internalNodes>
            0 -1 79 -746586438 -1147471910 2030507281 -4211588
            1917829919 -1474199128 -511325447 -1207981865</internalNodes>
          <leafValues>
            -4.3621620535850525e-01 2.9390466213226318e-01</leafValues></_>
        <_>
          <internalNodes>
            0 -1 43 -944472068 1489255376 -849296743 -138412755
            -499003507 -135310673 -1296045089 -1073743495</internalNodes>
          <leafValues>
            -3.7798503041267395e-01 3.7021672725677490e-01</leafValues></_>
        <_>
          <internalNodes>
            0 -1 47 -688675 -1342259207 -32769 -1073823747 -639043
            -32769 -1233174532 -1075953729</internalNodes>
          <leafValues>
            -3.3195424079895020e-01 3.8215392827987671e-01</leafValues></_>
        <_>
          <internalNodes>
            0 -1 7 -778202698 -758655822 1083818062 -242234921
            -939204387 -1073184571 -1060904613 1350001235</internalNodes>
          <leafValues>
            -6.8616104125976563e-01 1.7714311182498932e-01</leafValues></_>
        <_>
          <internalNodes>
            0 -1 83 -77353722 2077218661 -290559490 1926753247
            1458416704 2003131222 -956342294 -10766631</internalNodes>
          <leafValues>
            -3.0820095539093018e-01 3.8405498862266541e-01</leafValues></_>
        <_>
          <internalNodes>
            0 -1 62 796553207 783968507 -284067841 217861945 1583183037
            1600094061 2107863929 -84345860</internalNodes>
          <leafValues>
            -4.3447953462600708e-01 2.7841961383819580e-01</leafValues></_>
        <_>
          <internalNodes>
            0 -1 61 -1324681248 -715817676 -7701019 -186052492
            -1447999417 -738466727 -2004398052 -1452598900</internalNodes>
          <leafValues>
            -3.5872751474380493e-01 3.2406544685363770e-01</leafValues></_>
        <_>
          <internalNodes>
            0 -1 34 -22132008 1868417370 1468679024 -1802460016
            -291846964 -1216333812 -2138767650 -870303110</internalNodes>
          <leafValues>
            -3.3618837594985962e-01 3.3185571432113647e-01</leafValues></_>
        <_>
          <internalNodes>
            0 -1 41 527718237 758093803 -304492037 -1363160083
            -611439292 -76554529 -419484843 -386896064</internalNodes>
          <leafValues>
            -4.6725845336914063e-01 2.3677729070186615e-01</leafValues></_>
        <_>
          <internalNodes>
            0 -1 53 -695741816 -1152172032 -1827581693 -1689046722
            -133959494 -736362493 -896650562 -2066757409</internalNodes>
          <leafValues>
            -5.5069237947463989e-01 1.8698678910732269e-01</leafValues></_>
        <_>
          <internalNodes>
            0 -1 84 -7212120 -876080607 -1068130224 -544902957 71426574
            1300480363 -971415118 -691050337</internalNodes>
          <leafValues>
            -3.3665576577186584e-01 3.2651114463806152e-01</leafValues></_>
        <_>
          <internalNodes>
            0 -1 9 -2110889421 -332610462 202863367 1895872198 338057879
            772595212 1556759183 -794074902</internalNodes>
          <leafValues>
            -2.6264166831970215e-01 4.2414867877960205e-01</leafValues></_></weakClassifiers></_>
    <!-- stage 10 -->
    <_>
      <maxWeakCount>17</maxWeakCount>
      <stageThreshold>-1.2267707586288452e+00</stageThreshold>
      <weakClassifiers>
        <_>
          <internalNodes>
            0 -1 58 -10488941 -1078854470 1868517533 -36711009
            -1177757765 -1076309781 -90051921 -3159377</internalNodes>
          <leafValues>
            -6.1176472902297974e-01 6.4797505736351013e-02</leafValues></_>
        <_>
          <internalNodes>
            0 -1 15 -16253266 -1680541063 677937230 -158509826
            1432569358 -662260727 -7746962 -12322197</internalNodes>
          <leafValues>
            -5.3027486801147461e-01 1.8968196213245392e-01</leafValues></_>
        <_>
          <internalNodes>
            0 -1 60 -545784323 924031931 -988720643 1073214667
            -310259224 1440297091 -788479857 1072808075</internalNodes>
          <leafValues>
            -6.1582279205322266e-01 1.7316438257694244e-01</leafValues></_>
        <_>
          <internalNodes>
            0 -1 8 -460252293 -616623861 722276639 -540868329
            -1887364453 -1089798135 -402085746 2006682267</internalNodes>
          <leafValues>
            -4.9552750587463379e-01 2.5345110893249512e-01</leafValues></_>
        <_>
          <internalNodes>
            0 -1 23 1177145806 -586973064 -1788752452 -40386353
            1486580190 1512606054 -135533881 -425201738</internalNodes>
          <leafValues>
            -3.6999124288558960e-01 2.8587183356285095e-01</leafValues></_>
        <_>
          <internalNodes>
            0 -1 45 1838644647 -1561528865 -729397449 -525412914
            738180981 434867709 -1103152268 -860815548</internalNodes>
          <leafValues>
            -4.5217123627662659e-01 2.2640466690063477e-01</leafValues></_>
        <_>
          <internalNodes>
            0 -1 63 -63497212 2147438207 1258016748 1597714043
            1163133089 2142523861 790822351 -1149604261</internalNodes>
          <leafValues>
            -2.8808394074440002e-01 3.4161725640296936e-01</leafValues></_>
        <_>
          <internalNodes>
            0 -1 44 1034370421 1964959597 1307002367 -1142948406
            -907218081 -84029745 -1080037915 -1896547404</internalNodes>
          <leafValues>
            -3.2444486021995544e-01 2.9678848385810852e-01</leafValues></_>
        <_>
          <internalNodes>
            0 -1 81 -770194416 -8354260 236866624 1996572804 541213704
            -829404642 1676071674 -1801526235</internalNodes>
          <leafValues>
            -2.8617998957633972e-01 3.4611633419990540e-01</leafValues></_>
        <_>
          <internalNodes>
            0 -1 49 -438261041 -1504608289 -1127879553 -1035594305
            -379438497 231069801 -1031475245 -1066354735</internalNodes>
          <leafValues>
            -3.2237106561660767e-01 3.1666004657745361e-01</leafValues></_>
        <_>
          <internalNodes>
            0 -1 86 -2752992 -1258135080 -590503744 -1446444862
            545702528 -901208046 -44986148 -894576158</internalNodes>
          <leafValues>
            -4.0603670477867126e-01 2.4207091331481934e-01</leafValues></_>
        <_>
          <internalNodes>
            0 -1 27 -728074405 -750613365 352472202 1879231812
            1071991035 2072160523 1317030922 1791152292</internalNodes>
          <leafValues>
            -6.4618915319442749e-01 1.5619550645351410e-01</leafValues></_>
        <_>
          <internalNodes>
            0 -1 38 -1230369494 842842176 -657519811 -1197008784
            612525291 1787073975 930171439 -285500739</internalNodes>
          <leafValues>
            -3.2127040624618530e-01 3.2190144062042236e-01</leafValues></_>
        <_>
          <internalNodes>
            0 -1 55 761018231 676467675 1592882911 148299142 1930388862
            -1758540774 2102255479 1212446516</internalNodes>
          <leafValues>
            -6.0113221406936646e-01 1.7674645781517029e-01</leafValues></_>
        <_>
          <internalNodes>
            0 -1 46 -304727769 -972108931 495260390 -57173711 152795211
            1554285234 -439748765 -1586358449</internalNodes>
          <leafValues>
            -3.7888750433921814e-01 2.3966008424758911e-01</leafValues></_>
        <_>
          <internalNodes>
            0 -1 12 -511640396 -1056923454 -2113920611 -1056845525
            1883461850 1074274480 1634429258 2058052223</internalNodes>
          <leafValues>
            -7.0849531888961792e-01 1.4127959311008453e-01</leafValues></_>
        <_>
          <internalNodes>
            0 -1 31 -763179859 -1600112073 1239218276 1386310990
            -1931295096 -2074479758 1618204114 -535876821</internalNodes>
          <leafValues>
            -2.6615324616432190e-01 3.8216167688369751e-01</leafValues></_></weakClassifiers></_></stages>
  <features>
    <_>
      <rect>
        0 0 3 6</rect></_>
    <_>
      <rect>
        0 0 4 5</rect></_>
    <_>
      <rect>
        0 0 4 6</rect></_>
    <_>
      <rect>
        0 0 5 4</rect></_>
    <_>
      <rect>
        0 0 6 4</rect></_>
    <_>
      <rect>
        0 0 8 3</rect></_>
    <_>
      <rect>
        0 0 10 9</rect></_>
    <_>
      <rect>
        0 1 3 7</rect></_>
    <_>
      <rect>
        0 1 10 3</rect></_>
    <_>
      <rect>
        0 2 2 2</rect></_>
    <_>
      <rect>
        0 5 5 1</rect></_>
    <_>
      <rect>
        0 8 3 1</rect></_>
    <_>
      <rect>
        0 8 3 7</rect></_>
    <_>
      <rect>
        0 9 3 7</rect></_>
    <_>
      <rect>
        0 12 4 6</rect></_>
    <_>
      <rect>
        0 14 2 3</rect></_>
    <_>
      <rect>
        0 15 3 5</rect></_>
    <_>
      <rect>
        0 17 2 4</rect></_>
    <_>
      <rect>
        0 18 5 4</rect></_>
    <_>
      <rect>
        0 18 10 4</rect></_>
    <_>
      <rect>
        0 23 4 1</rect></_>
    <_>
      <rect>
        1 0 3 1</rect></_>
    <_>
      <rect>
        1 6 3 8</rect></_>
    <_>
      <rect>
        1 10 2 1</rect></_>
    <_>
      <rect>
        1 21 2 1</rect></_>
    <_>
      <rect>
        1 21 7 3</rect></_>
    <_>
      <rect>
        2 21 4 3</rect></_>
    <_>
      <rect>
        2 21 7 3</rect></_>
    <_>
      <rect>
        3 0 6 3</rect></_>
    <_>
      <rect>
        3 24 4 2</rect></_>
    <_>
      <rect>
        4 24 4 2</rect></_>
    <_>
      <rect>
        4 27 1 1</rect></_>
    <_>
      <rect>
        5 0 1 4</rect></_>
    <_>
      <rect>
        6 1 8 3</rect></_>
    <_>
      <rect>
        6 26 1 1</rect></_>
    <_>
      <rect>
        7 0 1 3</rect></_>
    <_>
      <rect>
        7 21 1 3</rect></_>
    <_>
      <rect>
        8 0 1 3</rect></_>
    <_>
      <rect>
        8 2 1 1</rect></_>
    <_>
      <rect>
        9 0 6 2</rect></_>
    <_>
      <rect>
        9 0 7 10</rect></_>
    <_>
      <rect>
        9 12 2 2</rect></_>
    <_>
      <rect>
        9 21 7 3</rect></_>
    <_>
      <rect>
        10 0 1 2</rect></_>
    <_>
      <rect>
        10 14 1 2</rect></_>
    <_>
      <rect>
        11 9 2 1</rect></_>
    <_>
      <rect>
        11 21 3 1</rect></_>
    <_>
      <rect>
        11 24 1 2</rect></_>
    <_>
      <rect>
        12 0 6 4</rect></_>
    <_>
      <rect>
        13 18 3 2</rect></_>
    <_>
      <rect>
        14 0 5 3</rect></_>
    <_>
      <rect>
        14 9 1 2</rect></_>
    <_>
      <rect>
        14 24 3 2</rect></_>
    <_>
      <rect>
        15 0 5 4</rect></_>
    <_>
      <rect>
        15 11 2 2</rect></_>
    <_>
      <rect>
        15 17 1 1</rect></_>
    <_>
      <rect>
        15 18 5 4</rect></_>
    <_>
      <rect>
        15 21 5 3</rect></_>
    <_>
      <rect>
        15 24 4 2</rect></_>
    <_>
      <rect>
        18 0 4 4</rect></_>
    <_>
      <rect>
        18 15 4 5</rect></_>
    <_>
      <rect>
        18 27 1 1</rect></_>
    <_>
      <rect>
        19 10 1 2</rect></_>
    <_>
      <rect>
        20 2 1 1</rect></_>
    <_>
      <rect>
        20 24 1 2</rect></_>
    <_>
      <rect>
        21 0 3 7</rect></_>
    <_>
      <rect>
        21 5 3 3</rect></_>
    <_>
      <rect>
        21 9 3 7</rect></_>
    <_>
      <rect>
        21 12 3 6</rect></_>
    <_>
      <rect>
        21 15 3 5</rect></_>
    <_>
      <rect>
        21 21 1 3</rect></_>
    <_>
      <rect>
        21 21 3 3</rect></_>
    <_>
      <rect>
        23 18 1 4</rect></_>
    <_>
      <rect>
        24 1 2 3</rect></_>
    <_>
      <rect>
        24 3 2 4</rect></_>
    <_>
      <rect>
        24 3 2 7</rect></_>
    <_>
      <rect>
        24 6 2 4</rect></_>
    <_>
      <rect>
        24 8 2 6</rect></_>
    <_>
      <rect>
        24 16 2 3</rect></_>
    <_>
      <rect>
        24 16 2 4</rect></_>
    <_>
      <rect>
        24 20 2 1</rect></_>
    <_>
      <rect>
        24 23 2 2</rect></_>
    <_>
      <rect>
        25 7 1 1</rect></_>
    <_>
      <rect>
        25 8 1 1</rect></_>
    <_>
      <rect>
        25 21 1 1</rect></_>
    <_>
      <rect>
        25 22 1 1</rect></_>
    <_>
      <rect>
        27 11 1 4</rect></_></features></cascade>
</opencv_storage>
