<?xml version="1.0"?>
<opencv_storage>
<cascade>
  <stageType>BOOST</stageType>
  <featureType>LBP</featureType>
  <height>20</height>
  <width>20</width>
  <stageParams>
    <boostType>GAB</boostType>
    <minHitRate>9.9900001287460327e-01</minHitRate>
    <maxFalseAlarm>1.0000000149011612e-01</maxFalseAlarm>
    <weightTrimRate>9.4999999999999996e-01</weightTrimRate>
    <maxDepth>1</maxDepth>
    <maxWeakCount>1000</maxWeakCount></stageParams>
  <featureParams>
    <maxCatCount>256</maxCatCount>
    <featSize>1</featSize></featureParams>
  <stageNum>11</stageNum>
  <stages>
    <!-- stage 0 -->
    <_>
      <maxWeakCount>5</maxWeakCount>
      <stageThreshold>-8.0435836315155029e-01</stageThreshold>
      <weakClassifiers>
        <_>
          <internalNodes>
            0 -1 39 -2359297 -136326711 -788414113 -73404001 -91491845
            310575746 -1286890517 870265823</internalNodes>
          <leafValues>
            -9.7563678026199341e-01 8.4729588031768799e-01</leafValues></_>
        <_>
          <internalNodes>
            0 -1 35 -14853153 -547357225 -49184387 -10513601 1674069231
            2144096943 260651519 -4236609</internalNodes>
          <leafValues>
            -8.1317728757858276e-01 8.5873115062713623e-01</leafValues></_>
        <_>
          <internalNodes>
            0 -1 5 -2097153 -2108461 -785918497 -48699 -206832642
            -78909033 -16391689 -134785177</internalNodes>
          <leafValues>
            -7.5788456201553345e-01 8.2359641790390015e-01</leafValues></_>
        <_>
          <internalNodes>
            0 -1 135 -1 1069547455 -4097 1073741823 -536870913 536870911
            -65537 -1073741825</internalNodes>
          <leafValues>
            -7.0898246765136719e-01 8.5968810319900513e-01</leafValues></_>
        <_>
          <internalNodes>
            0 -1 53 -67241990 -393277 -1 -786441 -33948194 -524290
            -50528513 -724172801</internalNodes>
          <leafValues>
            -7.0060074329376221e-01 7.7941423654556274e-01</leafValues></_></weakClassifiers></_>
    <!-- stage 1 -->
    <_>
      <maxWeakCount>6</maxWeakCount>
      <stageThreshold>-1.3895208835601807e+00</stageThreshold>
      <weakClassifiers>
        <_>
          <internalNodes>
            0 -1 158 -1 -136314881 -9 -1393560209 -16777217 -3073
            -19922945 -1929379841</internalNodes>
          <leafValues>
            -7.2931611537933350e-01 8.4905660152435303e-01</leafValues></_>
        <_>
          <internalNodes>
            0 -1 26 -524417 -14159877 -371204097 -101188609 1865375583
            2138799999 2146402175 -33921</internalNodes>
          <leafValues>
            -7.9426896572113037e-01 7.5455170869827271e-01</leafValues></_>
        <_>
          <internalNodes>
            0 -1 62 -33947649 -262145 -9 -13 -1 -655361 -33685505
            -34212011</internalNodes>
          <leafValues>
            -6.7626863718032837e-01 8.1387937068939209e-01</leafValues></_>
        <_>
          <internalNodes>
            0 -1 120 1006500863 1002373113 -1410859522 1073213951
            1879039999 2147482111 -603983877 -1073742337</internalNodes>
          <leafValues>
            -7.6847022771835327e-01 7.2428387403488159e-01</leafValues></_>
        <_>
          <internalNodes>
            0 -1 127 -197251 -541131777 -2049 -66577 -16973831 -2561
            -22347777 -1364177584</internalNodes>
          <leafValues>
            -7.5741219520568848e-01 6.2191027402877808e-01</leafValues></_>
        <_>
          <internalNodes>
            0 -1 161 -4194553 232783855 -33565185 12582911 -36898050
            -536880129 -16781604 -1266679825</internalNodes>
          <leafValues>
            -7.0535957813262939e-01 6.6088825464248657e-01</leafValues></_></weakClassifiers></_>
    <!-- stage 2 -->
    <_>
      <maxWeakCount>8</maxWeakCount>
      <stageThreshold>-1.1910008192062378e+00</stageThreshold>
      <weakClassifiers>
        <_>
          <internalNodes>
            0 -1 164 -1073750017 1069285375 -1 -1073741825 -1
            -1074003969 -1 -1073741825</internalNodes>
          <leafValues>
            -6.8230694532394409e-01 7.8447276353836060e-01</leafValues></_>
        <_>
          <internalNodes>
            0 -1 14 -543162369 -705201169 -1141374989 -1 -272629761
            -68183045 -134776969 -134742025</internalNodes>
          <leafValues>
            -7.0562392473220825e-01 7.6097226142883301e-01</leafValues></_>
        <_>
          <internalNodes>
            0 -1 57 2113888255 2056159223 -102236713 1811904959
            1879006959 -103055361 -2129921 -1081345</internalNodes>
          <leafValues>
            -7.3229050636291504e-01 6.3872694969177246e-01</leafValues></_>
        <_>
          <internalNodes>
            0 -1 130 -16785699 -13648385 -558638337 -1358954529 -532772
            -16385 -16777474 -318783747</internalNodes>
          <leafValues>
            -7.0665568113327026e-01 6.5945541858673096e-01</leafValues></_>
        <_>
          <internalNodes>
            0 -1 23 1977605615 -16982019 -843186194 -1048579 2113502815
            2130160247 -4725897 -134874249</internalNodes>
          <leafValues>
            -6.8241304159164429e-01 6.1997413635253906e-01</leafValues></_>
        <_>
          <internalNodes>
            0 -1 95 -1946504143 -5832775 -131075 -36306949 -67420361
            -81923 -1074397249 -323158412</internalNodes>
          <leafValues>
            -5.8808863162994385e-01 7.0417302846908569e-01</leafValues></_>
        <_>
          <internalNodes>
            0 -1 145 1072463871 -1077036033 -1224913 -1142721057
            -1082136577 -2107689 -3973643 -1074892801</internalNodes>
          <leafValues>
            -6.7577093839645386e-01 6.0882568359375000e-01</leafValues></_>
        <_>
          <internalNodes>
            0 -1 70 -1381827689 -8945667 -65537 -65671 -589834 -524289
            -4101 -34874055</internalNodes>
          <leafValues>
            -5.4024499654769897e-01 7.2262018918991089e-01</leafValues></_></weakClassifiers></_>
    <!-- stage 3 -->
    <_>
      <maxWeakCount>10</maxWeakCount>
      <stageThreshold>-5.1302665472030640e-01</stageThreshold>
      <weakClassifiers>
        <_>
          <internalNodes>
            0 -1 165 -33 267386859 -3 -268435457 -16777217 1342160895
            -16777217 -805306369</internalNodes>
          <leafValues>
            -5.9412956237792969e-01 6.8033093214035034e-01</leafValues></_>
        <_>
          <internalNodes>
            0 -1 7 -538976769 -543170577 -1929159689 -538993677
            -622220545 -2520353 -810832961 -134782089</internalNodes>
          <leafValues>
            -6.6231518983840942e-01 6.1093348264694214e-01</leafValues></_>
        <_>
          <internalNodes>
            0 -1 66 2030001919 2008382327 -138446081 2075883961 -4436744
            -3555333 -86414929 -37909</internalNodes>
          <leafValues>
            -6.7357558012008667e-01 5.5246663093566895e-01</leafValues></_>
        <_>
          <internalNodes>
            0 -1 104 -1118333468 -39384129 -1702243489 -1109221
            -29373362 -33570866 -1096242434 -1056973057</internalNodes>
          <leafValues>
            -6.5625220537185669e-01 4.8191747069358826e-01</leafValues></_>
        <_>
          <internalNodes>
            0 -1 197 -35785341 637712258 -950717696 -424806732 -91037163
            -1994335945 -597572972 -805309449</internalNodes>
          <leafValues>
            -5.6232464313507080e-01 5.7038217782974243e-01</leafValues></_>
        <_>
          <internalNodes>
            0 -1 41 -3149138 -507468697 -1474193521 -913704025
            -897515569 -1594892214 -14217953 -68260297</internalNodes>
          <leafValues>
            -5.7840156555175781e-01 5.5702513456344604e-01</leafValues></_>
        <_>
          <internalNodes>
            0 -1 138 1065766353 -1678116172 -4325377 -1241600523
            -1342390305 -34 -1082143755 -41492</internalNodes>
          <leafValues>
            -5.2725291252136230e-01 5.5036604404449463e-01</leafValues></_>
        <_>
          <internalNodes>
            0 -1 195 2010639690 -1417744485 -32773656 -319049521
            -36192248 1740146851 -118885433 -220202377</internalNodes>
          <leafValues>
            -5.4812949895858765e-01 5.4378885030746460e-01</leafValues></_>
        <_>
          <internalNodes>
            0 -1 34 -151289218 -829949281 1482697429 -66535415
            -100771250 -278243187 -27137297 -6590805</internalNodes>
          <leafValues>
            -7.0184862613677979e-01 4.0794125199317932e-01</leafValues></_>
        <_>
          <internalNodes>
            0 -1 87 -2061386824 -875864459 1235847165 -291515756
            -1176801521 -1095846514 445299319 -302147211</internalNodes>
          <leafValues>
            -5.8463734388351440e-01 4.8063629865646362e-01</leafValues></_></weakClassifiers></_>
    <!-- stage 4 -->
    <_>
      <maxWeakCount>12</maxWeakCount>
      <stageThreshold>-5.7174074649810791e-01</stageThreshold>
      <weakClassifiers>
        <_>
          <internalNodes>
            0 -1 169 -4126 -269549586 -134744176 -16386 -35 -538312705
            -4194321 -268435970</internalNodes>
          <leafValues>
            -5.1153463125228882e-01 6.2665659189224243e-01</leafValues></_>
        <_>
          <internalNodes>
            0 -1 2 -743452765 -83371822 -2134784801 -118502928
            -360258613 -1863745073 -353383697 -1574921</internalNodes>
          <leafValues>
            -5.0635993480682373e-01 6.1627525091171265e-01</leafValues></_>
        <_>
          <internalNodes>
            0 -1 128 -16785665 -545259521 -285212929 -603987969
            -538972472 -1081858 -16777234 -83886081</internalNodes>
          <leafValues>
            -4.5858991146087646e-01 6.6156119108200073e-01</leafValues></_>
        <_>
          <internalNodes>
            0 -1 163 -134354466 488371543 -2130587564 936628691
            -746470955 423940129 -788471669 1073737727</internalNodes>
          <leafValues>
            -7.6860111951828003e-01 3.7119674682617188e-01</leafValues></_>
        <_>
          <internalNodes>
            0 -1 8 -647326294 -544208902 1224886751 -1077050222
            -1718580483 -339803909 -1928489073 2003108695</internalNodes>
          <leafValues>
            -7.8629732131958008e-01 2.9479408264160156e-01</leafValues></_>
        <_>
          <internalNodes>
            0 -1 91 -565249 -689996221 -303694665 -36643377 -354648130
            -129827966 -27059461 -1611764033</internalNodes>
          <leafValues>
            -5.4874104261398315e-01 4.9345025420188904e-01</leafValues></_>
        <_>
          <internalNodes>
            0 -1 29 -524548 -49281 -29442117 -16875525 -138525544
            -557057 -8593826 -1</internalNodes>
          <leafValues>
            -4.7001370787620544e-01 5.3476202487945557e-01</leafValues></_>
        <_>
          <internalNodes>
            0 -1 179 -1822984406 -821044397 -13561686 -1028653293
            2038990106 2141987587 -213673044 -595788369</internalNodes>
          <leafValues>
            -5.8223396539688110e-01 4.4363555312156677e-01</leafValues></_>
        <_>
          <internalNodes>
            0 -1 147 -45890520 1427878185 1462178567 -150273471
            -700415238 -518553591 -301276529 677966731</internalNodes>
          <leafValues>
            -8.2411915063858032e-01 2.4798040091991425e-01</leafValues></_>
        <_>
          <internalNodes>
            0 -1 153 -1651247845 -1754748672 -419431175 -134920667
            -1082135666 -1073741897 2012477433 -4456522</internalNodes>
          <leafValues>
            -4.3405601382255554e-01 6.0976600646972656e-01</leafValues></_>
        <_>
          <internalNodes>
            0 -1 112 1929378744 -1113395428 2122133373 -1216555340
            -176685077 -436338689 -268994730 -1208025226</internalNodes>
          <leafValues>
            -3.9858368039131165e-01 5.7686591148376465e-01</leafValues></_>
        <_>
          <internalNodes>
            0 -1 17 1144091018 -1052602132 -1543796350 -1241575091
            484416255 -1161956165 -68129819 -218120457</internalNodes>
          <leafValues>
            -5.3872776031494141e-01 4.3102496862411499e-01</leafValues></_></weakClassifiers></_>
    <!-- stage 5 -->
    <_>
      <maxWeakCount>17</maxWeakCount>
      <stageThreshold>-6.2811207771301270e-01</stageThreshold>
      <weakClassifiers>
        <_>
          <internalNodes>
            0 -1 82 -79110184 924080140 -1879038704 1023737865
            -393690916 998252736 -1610577792 730349576</internalNodes>
          <leafValues>
            -7.8863233327865601e-01 4.3402677774429321e-01</leafValues></_>
        <_>
          <internalNodes>
            0 -1 24 -133506838 -787364864 -989820818 1359056912
            -356431668 1082679523 1637117598 -117212161</internalNodes>
          <leafValues>
            -6.3692897558212280e-01 3.8871291279792786e-01</leafValues></_>
        <_>
          <internalNodes>
            0 -1 157 1343348880 1396768783 16781577 -784265197 270704840
            -1308421120 -100531696 -1329603909</internalNodes>
          <leafValues>
            -5.3237473964691162e-01 4.8274305462837219e-01</leafValues></_>
        <_>
          <internalNodes>
            0 -1 77 -1026510384 -1555975735 -2147286507 -814841831
            277971385 -570736497 -1568175729 -1342240483</internalNodes>
          <leafValues>
            -5.4556530714035034e-01 3.8162934780120850e-01</leafValues></_>
        <_>
          <internalNodes>
            0 -1 47 -769798436 -50298864 952205523 16826368 -83884600
            2015391753 -1417647713 1503910089</internalNodes>
          <leafValues>
            -5.3520047664642334e-01 3.8191059231758118e-01</leafValues></_>
        <_>
          <internalNodes>
            0 -1 166 -711860872 -1115634672 822368345 -179191716
            1342177488 -1052753399 -1862221592 131186827</internalNodes>
          <leafValues>
            -5.3063774108886719e-01 3.9824080467224121e-01</leafValues></_>
        <_>
          <internalNodes>
            0 -1 61 -1431810374 237432564 -404558019 -5591456 2118450730
            -12124447 1568560171 -1348734877</internalNodes>
          <leafValues>
            -4.1404670476913452e-01 5.2944958209991455e-01</leafValues></_>
        <_>
          <internalNodes>
            0 -1 189 -921566206 1997759440 1463931076 310319918
            1764886528 1470306561 436814540 -70553855</internalNodes>
          <leafValues>
            -4.5638769865036011e-01 4.5609149336814880e-01</leafValues></_>
        <_>
          <internalNodes>
            0 -1 141 -216743920 -264830703 808140945 -183154421 17039669
            -1190719462 -2111798738 1861881663</internalNodes>
          <leafValues>
            -5.4058814048767090e-01 3.7660264968872070e-01</leafValues></_>
        <_>
          <internalNodes>
            0 -1 117 756628863 752802587 487973629 786949593 1015840605
            -1765804115 2080273765 1815411284</internalNodes>
          <leafValues>
            -6.9418799877166748e-01 2.8026229143142700e-01</leafValues></_>
        <_>
          <internalNodes>
            0 -1 146 -1817708558 -62281468 -939622475 -537498251
            -268566789 -67108939 -1711800347 -109637739</internalNodes>
          <leafValues>
            -4.0087956190109253e-01 5.1443433761596680e-01</leafValues></_>
        <_>
          <internalNodes>
            0 -1 33 -265231646 -297992519 764214704 314498908
            -2040476216 1853644796 -467607720 -611262920</internalNodes>
          <leafValues>
            -3.2520046830177307e-01 5.9394741058349609e-01</leafValues></_>
        <_>
          <internalNodes>
            0 -1 98 732642583 -1361655857 113341213 -1594568353
            1542605175 445366051 1791503217 1611951477</internalNodes>
          <leafValues>
            -7.2042715549468994e-01 2.6476228237152100e-01</leafValues></_>
        <_>
          <internalNodes>
            0 -1 194 -707695660 -1647741630 -753823600 218854022
            1887473938 1225869313 -268332910 1289467785</internalNodes>
          <leafValues>
            -5.1841080188751221e-01 3.3902582526206970e-01</leafValues></_>
        <_>
          <internalNodes>
            0 -1 203 -146113792 -372650006 -145656048 -45359868
            272646672 -796876543 -985896317 -712768748</internalNodes>
          <leafValues>
            -4.3760982155799866e-01 4.4674572348594666e-01</leafValues></_>
        <_>
          <internalNodes>
            0 -1 44 -636630814 -754891767 -2138545964 -1056743359
            -1592246072 142614729 1221274926 -118129818</internalNodes>
          <leafValues>
            -5.0454288721084595e-01 3.8891601562500000e-01</leafValues></_>
        <_>
          <internalNodes>
            0 -1 58 -892220180 -2126510954 2134019 1371816134 -254538742
            -402464544 -1559181080 -2147301320</internalNodes>
          <leafValues>
            -4.4714018702507019e-01 4.2229685187339783e-01</leafValues></_></weakClassifiers></_>
    <!-- stage 6 -->
    <_>
      <maxWeakCount>19</maxWeakCount>
      <stageThreshold>-8.1874531507492065e-01</stageThreshold>
      <weakClassifiers>
        <_>
          <internalNodes>
            0 -1 4 -1 -1048591 -8388609 -9 -513 -1 -513 -2089</internalNodes>
          <leafValues>
            -3.8667818903923035e-01 6.5820062160491943e-01</leafValues></_>
        <_>
          <internalNodes>
            0 -1 137 -4466693 -1347685210 -787091041 -36976297 -7674433
            -1163880822 -318258769 -3146817</internalNodes>
          <leafValues>
            -5.5541330575942993e-01 4.7500070929527283e-01</leafValues></_>
        <_>
          <internalNodes>
            0 -1 160 -275255561 -573493283 -427601249 1703447 -52960584
            -102778487 -84214022 -185614337</internalNodes>
          <leafValues>
            -6.0895550251007080e-01 3.6030113697052002e-01</leafValues></_>
        <_>
          <internalNodes>
            0 -1 18 -60162405 -1999273328 85061941 -510268415 1464551630
            -536325887 1770744683 2140891775</internalNodes>
          <leafValues>
            -6.8620681762695313e-01 3.2303556799888611e-01</leafValues></_>
        <_>
          <internalNodes>
            0 -1 48 -143917314 -109987336 1912983453 -16130807
            2056998622 2024450233 -1148637521 2140909194</internalNodes>
          <leafValues>
            -6.0588002204895020e-01 2.7660599350929260e-01</leafValues></_>
        <_>
          <internalNodes>
            0 -1 54 -887775461 -548957113 1191183493 -553415733
            -61349937 -225839122 -813192289 870050767</internalNodes>
          <leafValues>
            -7.9190051555633545e-01 1.8909014761447906e-01</leafValues></_>
        <_>
          <internalNodes>
            0 -1 20 -808720246 1149505568 -1760217645 -1697819953
            -903169878 -930958720 -375269929 -240127357</internalNodes>
          <leafValues>
            -4.0679827332496643e-01 4.3181541562080383e-01</leafValues></_>
        <_>
          <internalNodes>
            0 -1 193 1941421440 -1247223135 -1048554640 85443546
            1409311184 -1006510079 -1072411752 106422710</internalNodes>
          <leafValues>
            -6.6458779573440552e-01 2.4035003781318665e-01</leafValues></_>
        <_>
          <internalNodes>
            0 -1 142 -1075443265 -1361706101 -1321117365 -1571260527
            2069772874 1799606409 835201742 -287507684</internalNodes>
          <leafValues>
            -4.9294638633728027e-01 3.3331498503684998e-01</leafValues></_>
        <_>
          <internalNodes>
            0 -1 46 -86727990 -644691513 1183414457 1725540603
            -619453428 -1245149693 -661552422 -16650664</internalNodes>
          <leafValues>
            -4.0922650694847107e-01 4.0953937172889709e-01</leafValues></_>
        <_>
          <internalNodes>
            0 -1 60 -56168450 1409486850 1342181405 960778259 1771981970
            1759021185 765626537 2073624595</internalNodes>
          <leafValues>
            -5.9541338682174683e-01 2.7296522259712219e-01</leafValues></_>
        <_>
          <internalNodes>
            0 -1 103 -1800394656 -32882220 287315097 -114960132
            -1073439072 -1951293251 -1517803588 -1447270923</internalNodes>
          <leafValues>
            -6.0052204132080078e-01 2.6698079705238342e-01</leafValues></_>
        <_>
          <internalNodes>
            0 -1 175 -1827773456 -131781192 425218262 -182168551
            -2029805375 -334757759 574835328 -1142426919</internalNodes>
          <leafValues>
            -5.3181940317153931e-01 2.9575294256210327e-01</leafValues></_>
        <_>
          <internalNodes>
            0 -1 114 1926469567 -1966318661 1229132213 95343445
            -1548756473 -378371454 -32935102 1151656501</internalNodes>
          <leafValues>
            -5.6238728761672974e-01 2.8191742300987244e-01</leafValues></_>
        <_>
          <internalNodes>
            0 -1 67 -228712296 39715014 948733173 -2138382139 -611286832
            -796901248 -2147445938 1769509838</internalNodes>
          <leafValues>
            -4.5174622535705566e-01 3.4639564156532288e-01</leafValues></_>
        <_>
          <internalNodes>
            0 -1 80 -796028564 -49608390 1095258376 -49995373
            -2011592520 -90635384 -670793698 1153416127</internalNodes>
          <leafValues>
            -6.8506914377212524e-01 2.3520392179489136e-01</leafValues></_>
        <_>
          <internalNodes>
            0 -1 180 -646908702 -276659712 1451511824 -182775735
            268993251 207667360 1090588870 -712023933</internalNodes>
          <leafValues>
            -4.1838273406028748e-01 3.7080886960029602e-01</leafValues></_>
        <_>
          <internalNodes>
            0 -1 119 782178143 140214705 1745919223 752869452 1251680866
            1931673770 2107118323 543713719</internalNodes>
          <leafValues>
            -6.4641582965850830e-01 2.5874733924865723e-01</leafValues></_>
        <_>
          <internalNodes>
            0 -1 55 -49354333 -651515710 1610715277 -812924864
            -1944536913 -934575893 1214391667 -1014106684</internalNodes>
          <leafValues>
            -5.5510652065277100e-01 2.7978101372718811e-01</leafValues></_></weakClassifiers></_>
    <!-- stage 7 -->
    <_>
      <maxWeakCount>26</maxWeakCount>
      <stageThreshold>-5.4197788238525391e-01</stageThreshold>
      <weakClassifiers>
        <_>
          <internalNodes>
            0 -1 135 -170135045 1033488882 1079050699 365248535
            -394215048 940605521 -1073689968 1045413915</internalNodes>
          <leafValues>
            -6.0558140277862549e-01 3.6123594641685486e-01</leafValues></_>
        <_>
          <internalNodes>
            0 -1 3 -1046481510 -787378057 272732271 -652492329
            -779902213 550371514 -1073426402 1383555927</internalNodes>
          <leafValues>
            -6.8486726284027100e-01 2.3953141272068024e-01</leafValues></_>
        <_>
          <internalNodes>
            0 -1 83 -626108208 -608059303 -670239382 -1040128435
            -823861326 -58597340 -345838882 -7298722</internalNodes>
          <leafValues>
            -3.5410925745964050e-01 4.1074445843696594e-01</leafValues></_>
        <_>
          <internalNodes>
            0 -1 140 -627123046 -35793459 -93233811 -710959217
            -1789555308 2096941407 215932383 -4558085</internalNodes>
          <leafValues>
            -3.0861708521842957e-01 4.6998515725135803e-01</leafValues></_>
        <_>
          <internalNodes>
            0 -1 63 -1240954958 -766252656 1143800061 -718300656
            -770993945 -1702723477 -1039820113 -572580411</internalNodes>
          <leafValues>
            -5.0788408517837524e-01 2.6037213206291199e-01</leafValues></_>
        <_>
          <internalNodes>
            0 -1 168 -1700605064 -204937944 -1862138792 -1674837808
            -1280103798 -251575296 134464008 -1151791206</internalNodes>
          <leafValues>
            -5.8207160234451294e-01 1.8798963725566864e-01</leafValues></_>
        <_>
          <internalNodes>
            0 -1 116 487926335 765381019 2030129679 786404685 218978333
            1320808163 1577478004 71596821</internalNodes>
          <leafValues>
            -6.6272562742233276e-01 1.8607842922210693e-01</leafValues></_>
        <_>
          <internalNodes>
            0 -1 85 1465312240 955491584 592748952 420020240 2056939704
            982122625 1829939732 1810571394</internalNodes>
          <leafValues>
            -5.2940958738327026e-01 2.2098277509212494e-01</leafValues></_>
        <_>
          <internalNodes>
            0 -1 198 1364661696 -1198902096 1361931352 -142245818
            344009869 -1067843582 1219446792 -216669507</internalNodes>
          <leafValues>
            -3.7134969234466553e-01 3.3833658695220947e-01</leafValues></_>
        <_>
          <internalNodes>
            0 -1 129 1929842844 386994176 303137037 1599799600
            1929798298 -1283063711 -1172905925 1151785763</internalNodes>
          <leafValues>
            -6.4144581556320190e-01 1.7391693592071533e-01</leafValues></_>
        <_>
          <internalNodes>
            0 -1 0 773795858 -1087368333 1729510755 1862364789
            1915125211 2118122715 2132931035 -615795025</internalNodes>
          <leafValues>
            -2.8764581680297852e-01 4.6560156345367432e-01</leafValues></_>
        <_>
          <internalNodes>
            0 -1 121 295124599 735715129 -711894305 580301265 -187991265
            -1584625570 535515957 69790580</internalNodes>
          <leafValues>
            -5.9721815586090088e-01 2.3655734956264496e-01</leafValues></_>
        <_>
          <internalNodes>
            0 -1 32 1758830842 2120956863 1514548433 1646851767
            -849355684 -1137414169 -1662328674 -1009409570</internalNodes>
          <leafValues>
            -3.4954828023910522e-01 3.7021932005882263e-01</leafValues></_>
        <_>
          <internalNodes>
            0 -1 25 1964483327 -788180198 83937595 -1056861950
            -265731898 -243261424 -271811816 1930164907</internalNodes>
          <leafValues>
            -4.2187011241912842e-01 2.7953231334686279e-01</leafValues></_>
        <_>
          <internalNodes>
            0 -1 110 -1378394113 105373150 -1048259352 1256188020
            1922050572 -2136766458 587806805 2028263957</internalNodes>
          <leafValues>
            -4.5761775970458984e-01 2.6576706767082214e-01</leafValues></_>
        <_>
          <internalNodes>
            0 -1 204 -702950638 -580633310 1282958962 -602930123
            -2039202156 515883004 1005707238 -856697108</internalNodes>
          <leafValues>
            -2.5789994001388550e-01 4.6490073204040527e-01</leafValues></_>
        <_>
          <internalNodes>
            0 -1 102 -433955628 -1111337275 -735983159 -1353180142
            -1333757750 -1585397631 -125132369 -1953819553</internalNodes>
          <leafValues>
            -3.5156583786010742e-01 3.3910134434700012e-01</leafValues></_>
        <_>
          <internalNodes>
            0 -1 52 -1903128686 -787939248 33555979 1259274323
            -2008823412 1746567688 -928513893 -1051857385</internalNodes>
          <leafValues>
            -3.9155662059783936e-01 3.3448714017868042e-01</leafValues></_>
        <_>
          <internalNodes>
            0 -1 108 465268091 149315786 -677096761 1183749088 714102397
            713581467 1481140480 1149041056</internalNodes>
          <leafValues>
            -6.2754547595977783e-01 1.7920897901058197e-01</leafValues></_>
        <_>
          <internalNodes>
            0 -1 154 -230219678 -907005894 620757213 -711196093
            -2012599744 135075848 2013825045 1265310389</internalNodes>
          <leafValues>
            -3.9896026253700256e-01 3.1693732738494873e-01</leafValues></_>
        <_>
          <internalNodes>
            0 -1 196 -648121382 -1856134248 -2062155514 659900753
            -930393940 -1069440752 -766975857 -823788902</internalNodes>
          <leafValues>
            -3.7243515253067017e-01 3.2445132732391357e-01</leafValues></_>
        <_>
          <internalNodes>
            0 -1 144 1024218199 639800311 155424029 -1407398503
            -259888332 -565462392 1258443715 772153428</internalNodes>
          <leafValues>
            -5.5126291513442993e-01 2.0789429545402527e-01</leafValues></_>
        <_>
          <internalNodes>
            0 -1 43 1407305862 -804057078 436769242 2065598622
            1629596335 -1879015255 847905447 -1728061302</internalNodes>
          <leafValues>
            -3.4289044141769409e-01 3.5191309452056885e-01</leafValues></_>
        <_>
          <internalNodes>
            0 -1 153 -1241333104 -798935296 1417740930 291438728
            537035393 -81092605 1117397675 48454048</internalNodes>
          <leafValues>
            -4.2578420042991638e-01 3.0119541287422180e-01</leafValues></_>
        <_>
          <internalNodes>
            0 -1 71 -163438184 389317122 -1878839235 1603977418
            185770152 -1207392251 -1928526867 -1966138131</internalNodes>
          <leafValues>
            -3.7212237715721130e-01 3.4333685040473938e-01</leafValues></_>
        <_>
          <internalNodes>
            0 -1 64 -1433827175 -1572469374 -2146938445 1879148874
            -1861746547 111944216 553861125 541623447</internalNodes>
          <leafValues>
            -7.0146638154983521e-01 1.8544000387191772e-01</leafValues></_></weakClassifiers></_>
    <!-- stage 8 -->
    <_>
      <maxWeakCount>31</maxWeakCount>
      <stageThreshold>-6.8817859888076782e-01</stageThreshold>
      <weakClassifiers>
        <_>
          <internalNodes>
            0 -1 36 -470289441 -642251895 -2147331325 -654098167
            982141882 2139717816 1251056257 2123606149</internalNodes>
          <leafValues>
            -7.0775097608566284e-01 3.0977129936218262e-01</leafValues></_>
        <_>
          <internalNodes>
            0 -1 192 -20458859 -107613211 -802238037 610110879
            -266689910 -219602029 -627391493 -55574902</internalNodes>
          <leafValues>
            -4.1828265786170959e-01 3.3516353368759155e-01</leafValues></_>
        <_>
          <internalNodes>
            0 -1 9 1074762911 302710955 134284559 235864275 839092363
            -1962213078 -1970493301 -1492676345</internalNodes>
          <leafValues>
            -5.1736617088317871e-01 2.5770002603530884e-01</leafValues></_>
        <_>
          <internalNodes>
            0 -1 84 1957315272 1039163656 823734848 437780720
            -1282914076 2021722161 -1442743647 1868374697</internalNodes>
          <leafValues>
            -5.4623669385910034e-01 1.5546964108943939e-01</leafValues></_>
        <_>
          <internalNodes>
            0 -1 133 617692575 -1385765545 826340219 788451709
            1780031551 -203386458 717363701 1081899316</internalNodes>
          <leafValues>
            -5.2247536182403564e-01 1.9356602430343628e-01</leafValues></_>
        <_>
          <internalNodes>
            0 -1 201 -715922806 -917589624 -2008014320 -82716656
            -934081318 1707085986 1892110799 -45119947</internalNodes>
          <leafValues>
            -3.6310803890228271e-01 2.7222013473510742e-01</leafValues></_>
        <_>
          <internalNodes>
            0 -1 78 -981284264 -536854382 -2050490308 1032473857
            471861024 -359458080 -1945892742 -913503963</internalNodes>
          <leafValues>
            -4.6268737316131592e-01 2.2123739123344421e-01</leafValues></_>
        <_>
          <internalNodes>
            0 -1 22 1684705014 -507379446 1074434683 -1807495032
            2030900436 2105488 -522166360 -745345314</internalNodes>
          <leafValues>
            -3.6904156208038330e-01 2.5135603547096252e-01</leafValues></_>
        <_>
          <internalNodes>
            0 -1 89 621813293 721531306 357650297 1341583503 1492335701
            -388902392 2079880800 137394500</internalNodes>
          <leafValues>
            -6.6648912429809570e-01 1.3878731429576874e-01</leafValues></_>
        <_>
          <internalNodes>
            0 -1 155 -896382894 -66715643 1111577243 1493275523
            -1325234048 -74409838 -629024182 -92169536</internalNodes>
          <leafValues>
            -3.9967668056488037e-01 2.4320426583290100e-01</leafValues></_>
        <_>
          <internalNodes>
            0 -1 68 -907285296 1661198592 13550350 906498569 -391106416
            776192256 1174548426 1805590589</internalNodes>
          <leafValues>
            -3.7941259145736694e-01 2.5183865427970886e-01</leafValues></_>
        <_>
          <internalNodes>
            0 -1 178 2029584392 1438991044 411243796 1480973072
            -2079190912 -627572720 -790523670 -82861948</internalNodes>
          <leafValues>
            -3.4796422719955444e-01 2.7590453624725342e-01</leafValues></_>
        <_>
          <internalNodes>
            0 -1 111 -268447889 1341022070 -17301769 1316356069
            -813805697 1744207327 -134752393 -495655563</internalNodes>
          <leafValues>
            -2.9649320244789124e-01 3.3111000061035156e-01</leafValues></_>
        <_>
          <internalNodes>
            0 -1 19 -268242502 -2147172216 32891 -528478199 1913606527
            -660324224 1141013387 1753766603</internalNodes>
          <leafValues>
            -6.6426372528076172e-01 1.4498659968376160e-01</leafValues></_>
        <_>
          <internalNodes>
            0 -1 97 109344641 -2020233149 1159807765 530502977
            -2147428984 -1718861613 463980896 -1638114347</internalNodes>
          <leafValues>
            -3.5999822616577148e-01 2.8085976839065552e-01</leafValues></_>
        <_>
          <internalNodes>
            0 -1 156 -788405694 -636419567 -519890936 -847089582
            -115215977 -250511296 -121122623 77458379</internalNodes>
          <leafValues>
            -7.5533562898635864e-01 1.4225167036056519e-01</leafValues></_>
        <_>
          <internalNodes>
            0 -1 1 -939031520 1122762838 318954048 -1061404162
            -1476394466 671123032 -268353398 -1205628886</internalNodes>
          <leafValues>
            -3.5917261242866516e-01 2.9153293371200562e-01</leafValues></_>
        <_>
          <internalNodes>
            0 -1 143 797114813 30200144 -166669927 -2001439163 197668932
            1795334448 2072005119 69241168</internalNodes>
          <leafValues>
            -5.9400093555450439e-01 1.7089493572711945e-01</leafValues></_>
        <_>
          <internalNodes>
            0 -1 182 1930643473 2048639856 -939169723 1349010120
            478055440 -1224884361 1583867090 -978921801</internalNodes>
          <leafValues>
            -2.8644341230392456e-01 3.5793766379356384e-01</leafValues></_>
        <_>
          <internalNodes>
            0 -1 115 1830178368 -2071702060 -1073630855 -1965373215
            1343753752 979896389 1401319629 -1303838972</internalNodes>
          <leafValues>
            -4.1298103332519531e-01 2.4594284594058990e-01</leafValues></_>
        <_>
          <internalNodes>
            0 -1 21 604867084 347373830 1413539551 -1302691456 5437592
            -2003296249 1879057462 1353022359</internalNodes>
          <leafValues>
            -4.6906358003616333e-01 2.1009813249111176e-01</leafValues></_>
        <_>
          <internalNodes>
            0 -1 99 706154135 791450009 -516947522 684724667 1598566931
            -1395939193 1342193940 704934244</internalNodes>
          <leafValues>
            -6.2308943271636963e-01 1.4712804555892944e-01</leafValues></_>
        <_>
          <internalNodes>
            0 -1 72 -625279791 -181307639 -264732 -1250432597 -688011803
            1198859846 -235689745 -348400401</internalNodes>
          <leafValues>
            -1.8846546113491058e-01 5.6808167695999146e-01</leafValues></_>
        <_>
          <internalNodes>
            0 -1 188 2026836170 -1088331766 738159962 819161648
            1525475360 -33726468 -1016215746 -243168112</internalNodes>
          <leafValues>
            -2.9029262065887451e-01 3.3171239495277405e-01</leafValues></_>
        <_>
          <internalNodes>
            0 -1 10 -1456492397 1499006698 2066637157 1977447544
            1676619416 95829062 -675391234 -2514229</internalNodes>
          <leafValues>
            -2.0789454877376556e-01 4.8478984832763672e-01</leafValues></_>
        <_>
          <internalNodes>
            0 -1 170 -1228842358 -1844837576 136877077 2031125060
            1713406171 -1836867584 679477657 730005852</internalNodes>
          <leafValues>
            -4.7410532832145691e-01 2.2157476842403412e-01</leafValues></_>
        <_>
          <internalNodes>
            0 -1 131 471528855 -1898925641 -1853681272 -1471190798
            -267540943 1523253601 807587985 1824583361</internalNodes>
          <leafValues>
            -5.2353024482727051e-01 1.9247207045555115e-01</leafValues></_>
        <_>
          <internalNodes>
            0 -1 38 1747514250 -85053516 -716704157 838868189 1773770190
            18300485 -1778087238 622434098</internalNodes>
          <leafValues>
            -3.1497129797935486e-01 3.3026891946792603e-01</leafValues></_>
        <_>
          <internalNodes>
            0 -1 79 -933864192 -2146566064 1078056391 194379776
            -385175552 -167213933 -342226426 2085946006</internalNodes>
          <leafValues>
            -4.9423804879188538e-01 2.1131427586078644e-01</leafValues></_>
        <_>
          <internalNodes>
            0 -1 31 -15467537 -800456383 -2122301424 -2105537536
            1770343055 679493632 176447822 1216417288</internalNodes>
          <leafValues>
            -7.9073238372802734e-01 1.1872950196266174e-01</leafValues></_>
        <_>
          <internalNodes>
            0 -1 202 1427570103 288984251 955603989 -183494675
            -2023917903 -105062529 1609518750 -999852039</internalNodes>
          <leafValues>
            -2.9344817996025085e-01 3.5512000322341919e-01</leafValues></_></weakClassifiers></_>
    <!-- stage 9 -->
    <_>
      <maxWeakCount>39</maxWeakCount>
      <stageThreshold>-4.8502820730209351e-01</stageThreshold>
      <weakClassifiers>
        <_>
          <internalNodes>
            0 -1 129 -257 -8781828 -1 -1310733 -1090584833 -1 1056964607
            -1392509185</internalNodes>
          <leafValues>
            -3.1780993938446045e-01 3.7426131963729858e-01</leafValues></_>
        <_>
          <internalNodes>
            0 -1 199 -201672574 -814881556 -1108765487 -73981765
            -530450721 -2002615920 -91575041 -134743835</internalNodes>
          <leafValues>
            -3.1405395269393921e-01 3.1503176689147949e-01</leafValues></_>
        <_>
          <internalNodes>
            0 -1 13 -531582310 -983187333 58611 -939216882 2114425812
            -2147450880 1610766428 1928035183</internalNodes>
          <leafValues>
            -6.6790312528610229e-01 1.4800129830837250e-01</leafValues></_>
        <_>
          <internalNodes>
            0 -1 125 1398398942 1068962014 268521839 366297289
            -2134718072 1891639522 -1072692926 973767051</internalNodes>
          <leafValues>
            -4.6147504448890686e-01 1.7084906995296478e-01</leafValues></_>
        <_>
          <internalNodes>
            0 -1 150 588783487 -1950177899 -671018533 -285224133
            1791562152 -410415939 195725742 -867137120</internalNodes>
          <leafValues>
            -3.3109536767005920e-01 2.4802324175834656e-01</leafValues></_>
        <_>
          <internalNodes>
            0 -1 94 -712908218 471695739 789258753 -1357819373
            -351754719 -1945615999 -1433580744 1619780367</internalNodes>
          <leafValues>
            -3.7594461441040039e-01 2.2017662227153778e-01</leafValues></_>
        <_>
          <internalNodes>
            0 -1 37 -356282210 1893606424 46671943 -592065409 -861406523
            -1901846986 432070792 -1388280679</internalNodes>
          <leafValues>
            -2.5783953070640564e-01 3.3288186788558960e-01</leafValues></_>
        <_>
          <internalNodes>
            0 -1 118 -963608729 550843317 -1807600823 1611747475
            403573326 -623258888 -188082485 -388733967</internalNodes>
          <leafValues>
            -2.8861492872238159e-01 2.8120365738868713e-01</leafValues></_>
        <_>
          <internalNodes>
            0 -1 42 -1064327862 1359647686 33765449 1436467210
            1614914491 501252279 1819206867 -5773682</internalNodes>
          <leafValues>
            -3.0209878087043762e-01 2.7431118488311768e-01</leafValues></_>
        <_>
          <internalNodes>
            0 -1 185 293734846 431843000 -1361581071 1937985076
            928030148 -499128459 1114408923 -1155314687</internalNodes>
          <leafValues>
            -2.3249313235282898e-01 3.8732066750526428e-01</leafValues></_>
        <_>
          <internalNodes>
            0 -1 81 961487671 619118842 1342269941 738116801 1651186497
            1804151019 1720337780 73456448</internalNodes>
          <leafValues>
            -6.4449822902679443e-01 1.4064428210258484e-01</leafValues></_>
        <_>
          <internalNodes>
            0 -1 59 -2067274546 -1722220400 12587314 1556677912
            -469876020 -1593152504 -1036857780 -618020825</internalNodes>
          <leafValues>
            -3.3692574501037598e-01 2.4320504069328308e-01</leafValues></_>
        <_>
          <internalNodes>
            0 -1 190 1180362381 -985316699 -1845141355 1298202753
            1384356042 -1072660400 -198934398 -2001214834</internalNodes>
          <leafValues>
            -3.7318360805511475e-01 2.3100644350051880e-01</leafValues></_>
        <_>
          <internalNodes>
            0 -1 183 2130174525 -181379876 1112733469 1359750713
            -870637565 -2034338748 -497285262 -596729909</internalNodes>
          <leafValues>
            -2.0576521754264832e-01 4.0878844261169434e-01</leafValues></_>
        <_>
          <internalNodes>
            0 -1 88 -1872870349 1062830723 -1994799930 180933843
            1912824070 1067914263 -921761500 136375024</internalNodes>
          <leafValues>
            -5.8336454629898071e-01 1.4466215670108795e-01</leafValues></_>
        <_>
          <internalNodes>
            0 -1 6 1095082238 -2147417725 559301 8651478 1090945258
            138969098 -2004877280 1325871159</internalNodes>
          <leafValues>
            -8.4867787361145020e-01 9.2422053217887878e-02</leafValues></_>
        <_>
          <internalNodes>
            0 -1 74 1739980393 -1477459979 -12950110 -1343356943
            -1525371185 -806092929 -1528761119 -1464101467</internalNodes>
          <leafValues>
            -1.8593773245811462e-01 4.7192540764808655e-01</leafValues></_>
        <_>
          <internalNodes>
            0 -1 27 -1869552408 1377044884 138545169 505057429
            -775886055 76039000 -792731442 -795631101</internalNodes>
          <leafValues>
            -3.0214211344718933e-01 2.6992100477218628e-01</leafValues></_>
        <_>
          <internalNodes>
            0 -1 40 -1878684392 286167120 1623746416 -2116943758
            1216422078 137789455 1413497247 873179315</internalNodes>
          <leafValues>
            -3.0468839406967163e-01 2.8148049116134644e-01</leafValues></_>
        <_>
          <internalNodes>
            0 -1 136 92546853 603505421 -1181705898 43850974 1503873323
            51201 1252589056 1077996019</internalNodes>
          <leafValues>
            -5.8610635995864868e-01 1.3925841450691223e-01</leafValues></_>
        <_>
          <internalNodes>
            0 -1 86 -1852386888 -1820229622 163843 1359052805 164008
            -2146823607 -234839377 -1929420543</internalNodes>
          <leafValues>
            -4.3402481079101563e-01 1.8368244171142578e-01</leafValues></_>
        <_>
          <internalNodes>
            0 -1 167 -963706408 227842308 419762192 55431684 -2129656630
            -1073643376 -1073691973 1301389387</internalNodes>
          <leafValues>
            -6.9262760877609253e-01 1.1854767054319382e-01</leafValues></_>
        <_>
          <internalNodes>
            0 -1 132 1041240419 172523989 -1845470192 777188742
            -1065342418 -1903656565 -1692682091 439405908</internalNodes>
          <leafValues>
            -5.2648609876632690e-01 1.4767405390739441e-01</leafValues></_>
        <_>
          <internalNodes>
            0 -1 126 -223788197 -1762051198 922346534 358533236
            -738197507 796786687 -8423425 -55099394</internalNodes>
          <leafValues>
            -2.8469911217689514e-01 3.0867630243301392e-01</leafValues></_>
        <_>
          <internalNodes>
            0 -1 1 1023914130 -797632938 -7489822 -637347150 1851990583
            -598802607 -44599461 -1318814465</internalNodes>
          <leafValues>
            -2.7157431840896606e-01 3.2939291000366211e-01</leafValues></_>
        <_>
          <internalNodes>
            0 -1 186 -1988878703 534613957 -841183493 1762221117
            -1652691492 1593802717 -657859580 -624203518</internalNodes>
          <leafValues>
            -2.8319206833839417e-01 3.0416402220726013e-01</leafValues></_>
        <_>
          <internalNodes>
            0 -1 38 -802711663 1638104948 1817081663 -202126143
            -1165434978 -1399406656 -1459188607 -674566774</internalNodes>
          <leafValues>
            -1.6492560505867004e-01 5.2079612016677856e-01</leafValues></_>
        <_>
          <internalNodes>
            0 -1 101 -1986590973 32839 335779396 375314439 1963480133
            25772160 1091068998 4249101</internalNodes>
          <leafValues>
            -6.1466896533966064e-01 1.4851631224155426e-01</leafValues></_>
        <_>
          <internalNodes>
            0 -1 149 1901191546 -796917160 1645216139 346235648
            -1877899234 -1439104222 316768392 -687247094</internalNodes>
          <leafValues>
            -3.4962880611419678e-01 2.4582387506961823e-01</leafValues></_>
        <_>
          <internalNodes>
            0 -1 181 1968642520 -75761054 -1824145075 -584984983
            389289908 -1881998346 -548063406 -1913658337</internalNodes>
          <leafValues>
            -1.8360689282417297e-01 4.8999547958374023e-01</leafValues></_>
        <_>
          <internalNodes>
            0 -1 76 288487203 297861249 -602930175 285249536 -2121512334
            713064584 -125755101 -507314166</internalNodes>
          <leafValues>
            -4.4935536384582520e-01 2.0752239227294922e-01</leafValues></_>
        <_>
          <internalNodes>
            0 -1 65 856055791 -1342176999 -2113830912 -1073373182
            545499850 -1606369280 -2146925878 549915343</internalNodes>
          <leafValues>
            -4.0129446983337402e-01 2.1936637163162231e-01</leafValues></_>
        <_>
          <internalNodes>
            0 -1 109 235554390 46630928 -2130701104 79724698 261054789
            1057588929 287074880 1290172677</internalNodes>
          <leafValues>
            -6.9471091032028198e-01 1.2034727632999420e-01</leafValues></_>
        <_>
          <internalNodes>
            0 -1 93 -1038745496 -1870568894 -1426055165 -1714880256
            -1551891712 -105053664 463690427 1214351943</internalNodes>
          <leafValues>
            -4.2257249355316162e-01 2.0162153244018555e-01</leafValues></_>
        <_>
          <internalNodes>
            0 -1 176 -914888961 -634068628 772699805 -2012552102
            805256667 -1539400100 1174237113 -903152389</internalNodes>
          <leafValues>
            -1.8602158129215240e-01 4.7547128796577454e-01</leafValues></_>
        <_>
          <internalNodes>
            0 -1 96 -1231719985 219073740 -2147467181 -1366196986
            1488468225 -1089761821 1493303814 -1192340075</internalNodes>
          <leafValues>
            -3.2618963718414307e-01 2.7555984258651733e-01</leafValues></_>
        <_>
          <internalNodes>
            0 -1 191 -536575268 420549441 -1475301098 347689302
            671191758 1612775440 -897367253 -1217815925</internalNodes>
          <leafValues>
            -3.1301495432853699e-01 2.8358042240142822e-01</leafValues></_>
        <_>
          <internalNodes>
            0 -1 30 1904386298 -1878998975 1090529716 -2122301311
            2030521034 1753260160 587360559 595601550</internalNodes>
          <leafValues>
            -5.2849072217941284e-01 1.6810651123523712e-01</leafValues></_>
        <_>
          <internalNodes>
            0 -1 106 -1907589793 -81110672 -332035 1139948408
            -1880306311 -814403745 -687933729 -388143363</internalNodes>
          <leafValues>
            -2.3852697014808655e-01 4.0747365355491638e-01</leafValues></_></weakClassifiers></_>
    <!-- stage 10 -->
    <_>
      <maxWeakCount>41</maxWeakCount>
      <stageThreshold>-6.3771229982376099e-01</stageThreshold>
      <weakClassifiers>
        <_>
          <internalNodes>
            0 -1 53 453707167 58918403 -1957998837 -1618804333
            1210813481 -1047977599 -1912035153 84912315</internalNodes>
          <leafValues>
            -3.5632184147834778e-01 3.3033034205436707e-01</leafValues></_>
        <_>
          <internalNodes>
            0 -1 152 535394256 -1211117404 -1593830400 -1291122102
            537652611 -1073641472 1091138435 1036715562</internalNodes>
          <leafValues>
            -6.2113898992538452e-01 1.4343839883804321e-01</leafValues></_>
        <_>
          <internalNodes>
            0 -1 11 1400958594 1369423986 335544543 273630401 78030
            939786304 -499121937 -69790734</internalNodes>
          <leafValues>
            -3.8260880112648010e-01 2.0524574816226959e-01</leafValues></_>
        <_>
          <internalNodes>
            0 -1 134 547694431 -2015496894 1161914221 217223581
            1351485708 -1473541623 991541173 1275390624</internalNodes>
          <leafValues>
            -4.7694328427314758e-01 1.4842446148395538e-01</leafValues></_>
        <_>
          <internalNodes>
            0 -1 162 -262810082 331549073 810644550 498381528
            -1073606399 -1073741824 563187719 -1644699133</internalNodes>
          <leafValues>
            -4.1554844379425049e-01 1.7810615897178650e-01</leafValues></_>
        <_>
          <internalNodes>
            0 -1 139 -1877827782 -1206138390 22831633 1346431855
            1098907817 402653329 -1467961294 1335779471</internalNodes>
          <leafValues>
            -3.8806286454200745e-01 1.9361473619937897e-01</leafValues></_>
        <_>
          <internalNodes>
            0 -1 148 1854537749 -789446456 1384190293 -11075254
            -376871780 -1233939680 865049561 -1419602501</internalNodes>
          <leafValues>
            -2.6785436272621155e-01 2.7285888791084290e-01</leafValues></_>
        <_>
          <internalNodes>
            0 -1 184 -135435641 407015310 -337306887 1497798141
            393360404 148628711 -616806473 -14159037</internalNodes>
          <leafValues>
            -2.4106188118457794e-01 3.3437556028366089e-01</leafValues></_>
        <_>
          <internalNodes>
            0 -1 107 76223089 676398044 440514911 48212510 693203041
            1804550275 1275810084 1209333108</internalNodes>
          <leafValues>
            -6.2642222642898560e-01 1.4714528620243073e-01</leafValues></_>
        <_>
          <internalNodes>
            0 -1 204 1234450997 -49273438 810177588 274732103 543632051
            -926928894 -1720620913 -1027063687</internalNodes>
          <leafValues>
            -2.8585785627365112e-01 2.5041323900222778e-01</leafValues></_>
        <_>
          <internalNodes>
            0 -1 124 -134248541 -445972483 -1090568218 -1024819460
            1711234895 1837102719 1308065655 -622594840</internalNodes>
          <leafValues>
            -2.5457260012626648e-01 3.0711519718170166e-01</leafValues></_>
        <_>
          <internalNodes>
            0 -1 45 1626345704 1681924099 2 324337735 1240295612
            1622196224 714267291 -799875409</internalNodes>
          <leafValues>
            -3.8216239213943481e-01 2.0342968404293060e-01</leafValues></_>
        <_>
          <internalNodes>
            0 -1 50 -574667685 1436301110 481842343 656799543 1782555051
            -2017876098 2145168830 -35926993</internalNodes>
          <leafValues>
            -1.5931408107280731e-01 5.0493633747100830e-01</leafValues></_>
        <_>
          <internalNodes>
            0 -1 151 683151525 -2046287871 -738180925 1846020738
            1354766986 -8336752 151677806 203960369</internalNodes>
          <leafValues>
            -5.4661905765533447e-01 1.5875430405139923e-01</leafValues></_>
        <_>
          <internalNodes>
            0 -1 75 56911244 68240395 503703650 114098324 1167190547
            541117096 -2138516892 325046402</internalNodes>
          <leafValues>
            -4.6738240122795105e-01 1.3716882467269897e-01</leafValues></_>
        <_>
          <internalNodes>
            0 -1 159 -669789450 -780009455 285282579 173887763 35227266
            1459683714 268664859 279942067</internalNodes>
          <leafValues>
            -4.6208456158638000e-01 1.5583385527133942e-01</leafValues></_>
        <_>
          <internalNodes>
            0 -1 203 1627554032 1762789046 620826000 492844328 289694371
            1678771215 1149330865 1087148586</internalNodes>
          <leafValues>
            -4.1354259848594666e-01 1.8175143003463745e-01</leafValues></_>
        <_>
          <internalNodes>
            0 -1 92 -28943672 566774165 -2013151214 1359874051
            -1977054468 -384729085 -196967729 -1121957880</internalNodes>
          <leafValues>
            -3.1417509913444519e-01 2.3200413584709167e-01</leafValues></_>
        <_>
          <internalNodes>
            0 -1 174 522419812 -9687765 -68210830 -155307272 -813695907
            2113929086 -335579187 -1109347524</internalNodes>
          <leafValues>
            -1.8196481466293335e-01 4.1947683691978455e-01</leafValues></_>
        <_>
          <internalNodes>
            0 -1 100 -2070644477 142957675 -1190342592 973148561
            210067459 128122902 1640612129 176814964</internalNodes>
          <leafValues>
            -4.7405707836151123e-01 1.6191677749156952e-01</leafValues></_>
        <_>
          <internalNodes>
            0 -1 73 269496350 348393822 1360076254 -133033906 731396208
            -111673205 549252028 1512765557</internalNodes>
          <leafValues>
            -3.0763280391693115e-01 2.4695667624473572e-01</leafValues></_>
        <_>
          <internalNodes>
            0 -1 12 285835598 1494229074 65630 -846266164 1876109
            -1985379446 136382979 1728479235</internalNodes>
          <leafValues>
            -7.0364135503768921e-01 1.0055542737245560e-01</leafValues></_>
        <_>
          <internalNodes>
            0 -1 15 -1147500997 -226886952 526258863 -537268739
            2088666862 -1165574544 1961211119 -22048597</internalNodes>
          <leafValues>
            -1.3978172838687897e-01 5.8898490667343140e-01</leafValues></_>
        <_>
          <internalNodes>
            0 -1 205 1976943321 -748815646 -873178165 -648422350
            526631451 -1754598453 -684286535 -331089714</internalNodes>
          <leafValues>
            -1.3122051954269409e-01 5.2673053741455078e-01</leafValues></_>
        <_>
          <internalNodes>
            0 -1 90 428084789 797037150 1266997592 141660160 -221692587
            -1702063990 -1014369691 538200068</internalNodes>
          <leafValues>
            -5.2592033147811890e-01 1.5226265788078308e-01</leafValues></_>
        <_>
          <internalNodes>
            0 -1 28 -1837045018 -2121269247 -2147233674 -1048494008
            1362119242 696305673 1652657260 1829808219</internalNodes>
          <leafValues>
            -5.9052139520645142e-01 1.2945570051670074e-01</leafValues></_>
        <_>
          <internalNodes>
            0 -1 69 -917766314 1332259721 532151934 -118907526
            -1890297401 -552026124 -269767093 -64250325</internalNodes>
          <leafValues>
            -1.7540489137172699e-01 4.5520001649856567e-01</leafValues></_>
        <_>
          <internalNodes>
            0 -1 200 2025301428 919574694 4677484 1362149377 1074929803
            -2012707807 1753925773 -844252565</internalNodes>
          <leafValues>
            -2.9126864671707153e-01 2.5815320014953613e-01</leafValues></_>
        <_>
          <internalNodes>
            0 -1 16 388991819 974912885 -1909014533 -547099250
            1567323682 2095382366 -577888645 -720706062</internalNodes>
          <leafValues>
            -2.6015925407409668e-01 3.0490985512733459e-01</leafValues></_>
        <_>
          <internalNodes>
            0 -1 177 1778682455 830767445 -1593454512 438822373
            1174570880 -81715190 -524251116 -96224502</internalNodes>
          <leafValues>
            -2.9653519392013550e-01 2.8567880392074585e-01</leafValues></_>
        <_>
          <internalNodes>
            0 -1 49 -1056842800 648858211 662452019 814035413
            -1368468239 -1182814355 -545991254 -44983274</internalNodes>
          <leafValues>
            -1.9154731929302216e-01 4.1249367594718933e-01</leafValues></_>
        <_>
          <internalNodes>
            0 -1 56 -16777505 -4784691 -65541 -335544577 -426590996
            -277643649 1979708910 -541335109</internalNodes>
          <leafValues>
            -1.1334761977195740e-01 7.0936864614486694e-01</leafValues></_>
        <_>
          <internalNodes>
            0 -1 123 441848891 785355186 16815195 79040799 1979857725
            1803593753 469594432 70804305</internalNodes>
          <leafValues>
            -6.4776355028152466e-01 1.4254352450370789e-01</leafValues></_>
        <_>
          <internalNodes>
            0 -1 172 -1941671605 826515465 1174966638 326683025
            1132603416 -608690176 -662974270 -1725717820</internalNodes>
          <leafValues>
            -2.6409107446670532e-01 3.0091562867164612e-01</leafValues></_>
        <_>
          <internalNodes>
            0 -1 187 -265043579 -2138898429 -2147413678 -2125319919
            -805207944 536875393 -619650869 -1999516469</internalNodes>
          <leafValues>
            -3.2249042391777039e-01 2.5747072696685791e-01</leafValues></_>
        <_>
          <internalNodes>
            0 -1 51 -1785791390 1976113370 17694774 -644480378
            -1577018720 -661995006 -2011002868 -1920450448</internalNodes>
          <leafValues>
            -5.6214320659637451e-01 1.3959644734859467e-01</leafValues></_>
        <_>
          <internalNodes>
            0 -1 173 -343044441 -587477412 233684429 327108285
            -353501544 -9601702 -36907180 -1085153345</internalNodes>
          <leafValues>
            -1.6908627748489380e-01 5.1047462224960327e-01</leafValues></_>
        <_>
          <internalNodes>
            0 -1 113 -1877572725 785224081 67731840 780544343 679482120
            1245918157 -1904157806 -136985724</internalNodes>
          <leafValues>
            -3.2634690403938293e-01 2.5374546647071838e-01</leafValues></_>
        <_>
          <internalNodes>
            0 -1 105 454238866 310448192 50397957 1460740161 1913217298
            -1473052159 -1372945906 13140107</internalNodes>
          <leafValues>
            -8.0368441343307495e-01 1.0004962980747223e-01</leafValues></_>
        <_>
          <internalNodes>
            0 -1 122 -338947737 -366060801 -285540361 1492920443
            -864268866 -704643075 -285802665 -89849225</internalNodes>
          <leafValues>
            -2.1260327100753784e-01 4.0558832883834839e-01</leafValues></_>
        <_>
          <internalNodes>
            0 -1 171 -854642671 415801728 1124325496 1150472736
            -1845493246 -532510336 1216383671 -2033712386</internalNodes>
          <leafValues>
            -3.1521633267402649e-01 2.6826748251914978e-01</leafValues></_></weakClassifiers></_></stages>
  <features>
    <_>
      <rect>
        0 0 1 2</rect></_>
    <_>
      <rect>
        0 0 2 1</rect></_>
    <_>
      <rect>
        0 0 2 4</rect></_>
    <_>
      <rect>
        0 0 2 5</rect></_>
    <_>
      <rect>
        0 0 3 3</rect></_>
    <_>
      <rect>
        0 0 3 4</rect></_>
    <_>
      <rect>
        0 0 3 5</rect></_>
    <_>
      <rect>
        0 0 4 3</rect></_>
    <_>
      <rect>
        0 0 5 2</rect></_>
    <_>
      <rect>
        0 0 5 3</rect></_>
    <_>
      <rect>
        0 1 1 1</rect></_>
    <_>
      <rect>
        0 1 2 3</rect></_>
    <_>
      <rect>
        0 1 5 2</rect></_>
    <_>
      <rect>
        0 2 2 6</rect></_>
    <_>
      <rect>
        0 2 3 2</rect></_>
    <_>
      <rect>
        0 3 1 1</rect></_>
    <_>
      <rect>
        0 3 1 2</rect></_>
    <_>
      <rect>
        0 4 2 1</rect></_>
    <_>
      <rect>
        0 5 2 5</rect></_>
    <_>
      <rect>
        0 5 3 5</rect></_>
    <_>
      <rect>
        0 6 1 1</rect></_>
    <_>
      <rect>
        0 6 1 2</rect></_>
    <_>
      <rect>
        0 7 1 4</rect></_>
    <_>
      <rect>
        0 8 2 1</rect></_>
    <_>
      <rect>
        0 8 2 4</rect></_>
    <_>
      <rect>
        0 10 2 3</rect></_>
    <_>
      <rect>
        0 10 3 3</rect></_>
    <_>
      <rect>
        0 11 1 1</rect></_>
    <_>
      <rect>
        0 11 2 2</rect></_>
    <_>
      <rect>
        0 11 2 3</rect></_>
    <_>
      <rect>
        0 11 3 3</rect></_>
    <_>
      <rect>
        0 11 5 3</rect></_>
    <_>
      <rect>
        0 13 1 1</rect></_>
    <_>
      <rect>
        0 14 1 2</rect></_>
    <_>
      <rect>
        0 14 3 2</rect></_>
    <_>
      <rect>
        0 14 5 2</rect></_>
    <_>
      <rect>
        0 14 6 2</rect></_>
    <_>
      <rect>
        0 15 1 1</rect></_>
    <_>
      <rect>
        0 17 1 1</rect></_>
    <_>
      <rect>
        1 1 6 6</rect></_>
    <_>
      <rect>
        1 2 1 1</rect></_>
    <_>
      <rect>
        1 2 1 5</rect></_>
    <_>
      <rect>
        1 5 1 1</rect></_>
    <_>
      <rect>
        1 6 1 1</rect></_>
    <_>
      <rect>
        1 7 1 3</rect></_>
    <_>
      <rect>
        1 12 1 2</rect></_>
    <_>
      <rect>
        1 13 1 1</rect></_>
    <_>
      <rect>
        1 14 3 2</rect></_>
    <_>
      <rect>
        1 14 4 2</rect></_>
    <_>
      <rect>
        1 16 1 1</rect></_>
    <_>
      <rect>
        2 0 1 1</rect></_>
    <_>
      <rect>
        2 0 2 2</rect></_>
    <_>
      <rect>
        2 0 3 2</rect></_>
    <_>
      <rect>
        2 0 6 2</rect></_>
    <_>
      <rect>
        2 0 6 6</rect></_>
    <_>
      <rect>
        2 3 1 2</rect></_>
    <_>
      <rect>
        2 3 5 4</rect></_>
    <_>
      <rect>
        2 11 2 3</rect></_>
    <_>
      <rect>
        2 14 1 1</rect></_>
    <_>
      <rect>
        2 17 2 1</rect></_>
    <_>
      <rect>
        2 17 5 1</rect></_>
    <_>
      <rect>
        3 0 3 1</rect></_>
    <_>
      <rect>
        3 0 3 2</rect></_>
    <_>
      <rect>
        3 1 1 2</rect></_>
    <_>
      <rect>
        3 6 5 3</rect></_>
    <_>
      <rect>
        3 8 1 4</rect></_>
    <_>
      <rect>
        3 14 2 2</rect></_>
    <_>
      <rect>
        3 17 1 1</rect></_>
    <_>
      <rect>
        3 17 2 1</rect></_>
    <_>
      <rect>
        4 0 1 1</rect></_>
    <_>
      <rect>
        4 0 1 2</rect></_>
    <_>
      <rect>
        4 1 1 1</rect></_>
    <_>
      <rect>
        4 4 4 4</rect></_>
    <_>
      <rect>
        4 7 1 1</rect></_>
    <_>
      <rect>
        4 7 3 3</rect></_>
    <_>
      <rect>
        4 13 2 1</rect></_>
    <_>
      <rect>
        4 15 2 1</rect></_>
    <_>
      <rect>
        5 0 1 2</rect></_>
    <_>
      <rect>
        5 0 2 1</rect></_>
    <_>
      <rect>
        5 0 3 1</rect></_>
    <_>
      <rect>
        5 0 5 2</rect></_>
    <_>
      <rect>
        5 9 1 1</rect></_>
    <_>
      <rect>
        5 14 5 2</rect></_>
    <_>
      <rect>
        5 17 1 1</rect></_>
    <_>
      <rect>
        5 17 2 1</rect></_>
    <_>
      <rect>
        5 17 3 1</rect></_>
    <_>
      <rect>
        6 0 1 2</rect></_>
    <_>
      <rect>
        6 2 1 1</rect></_>
    <_>
      <rect>
        6 7 1 1</rect></_>
    <_>
      <rect>
        6 10 1 1</rect></_>
    <_>
      <rect>
        6 11 1 1</rect></_>
    <_>
      <rect>
        6 14 1 2</rect></_>
    <_>
      <rect>
        6 17 1 1</rect></_>
    <_>
      <rect>
        7 0 3 1</rect></_>
    <_>
      <rect>
        7 0 4 1</rect></_>
    <_>
      <rect>
        7 1 1 1</rect></_>
    <_>
      <rect>
        7 5 2 2</rect></_>
    <_>
      <rect>
        7 5 2 3</rect></_>
    <_>
      <rect>
        7 7 1 1</rect></_>
    <_>
      <rect>
        7 8 1 1</rect></_>
    <_>
      <rect>
        7 9 2 2</rect></_>
    <_>
      <rect>
        7 14 2 1</rect></_>
    <_>
      <rect>
        7 17 1 1</rect></_>
    <_>
      <rect>
        8 0 1 1</rect></_>
    <_>
      <rect>
        8 0 4 2</rect></_>
    <_>
      <rect>
        8 0 4 3</rect></_>
    <_>
      <rect>
        8 6 3 3</rect></_>
    <_>
      <rect>
        8 9 1 1</rect></_>
    <_>
      <rect>
        8 10 1 1</rect></_>
    <_>
      <rect>
        8 11 1 1</rect></_>
    <_>
      <rect>
        8 12 1 1</rect></_>
    <_>
      <rect>
        8 12 2 1</rect></_>
    <_>
      <rect>
        8 17 3 1</rect></_>
    <_>
      <rect>
        9 5 2 1</rect></_>
    <_>
      <rect>
        9 6 1 1</rect></_>
    <_>
      <rect>
        9 8 2 2</rect></_>
    <_>
      <rect>
        9 9 1 1</rect></_>
    <_>
      <rect>
        9 10 1 1</rect></_>
    <_>
      <rect>
        9 10 2 2</rect></_>
    <_>
      <rect>
        9 13 1 1</rect></_>
    <_>
      <rect>
        9 14 3 2</rect></_>
    <_>
      <rect>
        10 8 1 1</rect></_>
    <_>
      <rect>
        10 8 2 3</rect></_>
    <_>
      <rect>
        10 9 1 1</rect></_>
    <_>
      <rect>
        10 14 2 1</rect></_>
    <_>
      <rect>
        10 14 3 2</rect></_>
    <_>
      <rect>
        10 17 3 1</rect></_>
    <_>
      <rect>
        11 0 1 2</rect></_>
    <_>
      <rect>
        11 0 3 2</rect></_>
    <_>
      <rect>
        11 0 3 3</rect></_>
    <_>
      <rect>
        11 1 3 2</rect></_>
    <_>
      <rect>
        11 4 1 1</rect></_>
    <_>
      <rect>
        11 7 1 1</rect></_>
    <_>
      <rect>
        11 9 1 1</rect></_>
    <_>
      <rect>
        11 10 1 1</rect></_>
    <_>
      <rect>
        11 11 3 3</rect></_>
    <_>
      <rect>
        11 13 1 1</rect></_>
    <_>
      <rect>
        11 14 3 2</rect></_>
    <_>
      <rect>
        11 17 1 1</rect></_>
    <_>
      <rect>
        11 17 2 1</rect></_>
    <_>
      <rect>
        12 0 1 1</rect></_>
    <_>
      <rect>
        12 0 1 2</rect></_>
    <_>
      <rect>
        12 6 1 2</rect></_>
    <_>
      <rect>
        12 10 1 1</rect></_>
    <_>
      <rect>
        12 12 1 1</rect></_>
    <_>
      <rect>
        12 14 1 2</rect></_>
    <_>
      <rect>
        12 17 1 1</rect></_>
    <_>
      <rect>
        13 0 2 4</rect></_>
    <_>
      <rect>
        13 1 1 1</rect></_>
    <_>
      <rect>
        13 2 2 1</rect></_>
    <_>
      <rect>
        13 8 1 1</rect></_>
    <_>
      <rect>
        13 9 1 2</rect></_>
    <_>
      <rect>
        13 14 1 2</rect></_>
    <_>
      <rect>
        13 17 1 1</rect></_>
    <_>
      <rect>
        14 0 2 1</rect></_>
    <_>
      <rect>
        14 0 2 2</rect></_>
    <_>
      <rect>
        14 0 2 6</rect></_>
    <_>
      <rect>
        14 1 2 3</rect></_>
    <_>
      <rect>
        14 1 2 5</rect></_>
    <_>
      <rect>
        14 2 2 3</rect></_>
    <_>
      <rect>
        14 3 2 2</rect></_>
    <_>
      <rect>
        14 4 2 2</rect></_>
    <_>
      <rect>
        14 4 2 5</rect></_>
    <_>
      <rect>
        14 5 2 5</rect></_>
    <_>
      <rect>
        14 8 2 4</rect></_>
    <_>
      <rect>
        14 11 2 2</rect></_>
    <_>
      <rect>
        14 11 2 3</rect></_>
    <_>
      <rect>
        14 12 2 2</rect></_>
    <_>
      <rect>
        14 14 1 2</rect></_>
    <_>
      <rect>
        14 14 2 1</rect></_>
    <_>
      <rect>
        14 16 1 1</rect></_>
    <_>
      <rect>
        14 17 2 1</rect></_>
    <_>
      <rect>
        15 0 1 1</rect></_>
    <_>
      <rect>
        15 2 1 1</rect></_>
    <_>
      <rect>
        15 10 1 1</rect></_>
    <_>
      <rect>
        15 14 1 2</rect></_>
    <_>
      <rect>
        15 17 1 1</rect></_>
    <_>
      <rect>
        16 2 1 1</rect></_>
    <_>
      <rect>
        16 4 1 1</rect></_>
    <_>
      <rect>
        16 6 1 1</rect></_>
    <_>
      <rect>
        16 13 1 1</rect></_>
    <_>
      <rect>
        16 15 1 1</rect></_>
    <_>
      <rect>
        16 16 1 1</rect></_>
    <_>
      <rect>
        16 17 1 1</rect></_>
    <_>
      <rect>
        17 0 1 1</rect></_>
    <_>
      <rect>
        17 2 1 1</rect></_>
    <_>
      <rect>
        17 2 1 2</rect></_>
    <_>
      <rect>
        17 2 1 3</rect></_>
    <_>
      <rect>
        17 3 1 1</rect></_>
    <_>
      <rect>
        17 4 1 1</rect></_>
    <_>
      <rect>
        17 4 1 3</rect></_>
    <_>
      <rect>
        17 5 1 1</rect></_>
    <_>
      <rect>
        17 5 1 2</rect></_>
    <_>
      <rect>
        17 5 1 4</rect></_>
    <_>
      <rect>
        17 6 1 3</rect></_>
    <_>
      <rect>
        17 8 1 1</rect></_>
    <_>
      <rect>
        17 8 1 3</rect></_>
    <_>
      <rect>
        17 10 1 2</rect></_>
    <_>
      <rect>
        17 10 1 3</rect></_>
    <_>
      <rect>
        17 12 1 1</rect></_>
    <_>
      <rect>
        17 12 1 2</rect></_>
    <_>
      <rect>
        17 13 1 1</rect></_>
    <_>
      <rect>
        17 13 1 2</rect></_>
    <_>
      <rect>
        17 14 1 1</rect></_>
    <_>
      <rect>
        17 14 1 2</rect></_>
    <_>
      <rect>
        17 15 1 1</rect></_></features></cascade>
</opencv_storage>
