<?xml version="1.0"?>
<opencv_storage>
<cascade>
  <stageType>BOOST</stageType>
  <featureType>LBP</featureType>
  <height>40</height>
  <width>40</width>
  <stageParams>
    <boostType>GAB</boostType>
    <minHitRate>9.9500000476837158e-01</minHitRate>
    <maxFalseAlarm>5.0000000000000000e-01</maxFalseAlarm>
    <weightTrimRate>9.4999999999999996e-01</weightTrimRate>
    <maxDepth>1</maxDepth>
    <maxWeakCount>100</maxWeakCount></stageParams>
  <featureParams>
    <maxCatCount>256</maxCatCount>
    <featSize>1</featSize></featureParams>
  <stageNum>20</stageNum>
  <stages>
    <!-- stage 0 -->
    <_>
      <maxWeakCount>2</maxWeakCount>
      <stageThreshold>-1.1906637996435165e-01</stageThreshold>
      <weakClassifiers>
        <_>
          <internalNodes>
            0 -1 6 -538971649 -2371381 -788294819 -648030833 -208011333
            -248970613 -1148462165 1946121211</internalNodes>
          <leafValues>
            -9.6664875745773315e-01 8.7608069181442261e-01</leafValues></_>
        <_>
          <internalNodes>
            0 -1 20 -48373765 -581889643 1359073791 -4222649 1300318671
            1535836552 513501615 -1373525</internalNodes>
          <leafValues>
            -7.8810733556747437e-01 8.4758234024047852e-01</leafValues></_></weakClassifiers></_>
    <!-- stage 1 -->
    <_>
      <maxWeakCount>3</maxWeakCount>
      <stageThreshold>-7.6451730728149414e-01</stageThreshold>
      <weakClassifiers>
        <_>
          <internalNodes>
            0 -1 77 -1 799801339 -2081 1073741823 -1040187393 1073741819
            -1 -1073741825</internalNodes>
          <leafValues>
            -7.8452497720718384e-01 8.6270731687545776e-01</leafValues></_>
        <_>
          <internalNodes>
            0 -1 2 -3145737 -77857629 -2087333437 -675309629 -103813425
            -863272713 -406594969 -210278537</internalNodes>
          <leafValues>
            -7.9801303148269653e-01 8.3024477958679199e-01</leafValues></_>
        <_>
          <internalNodes>
            0 -1 25 -720901 -6 -5 -655373 -65538 -33 -131073 -178915497</internalNodes>
          <leafValues>
            -7.2165483236312866e-01 8.1802070140838623e-01</leafValues></_></weakClassifiers></_>
    <!-- stage 2 -->
    <_>
      <maxWeakCount>3</maxWeakCount>
      <stageThreshold>-7.4807548522949219e-01</stageThreshold>
      <weakClassifiers>
        <_>
          <internalNodes>
            0 -1 91 -2097153 -1 -2065 -486539265 -50401281 -71306471
            -16778241 -1929379841</internalNodes>
          <leafValues>
            -7.3211711645126343e-01 8.4639495611190796e-01</leafValues></_>
        <_>
          <internalNodes>
            0 -1 58 1073741823 1069022143 -1838289441 1071638427
            802020351 1072626667 -637796353 -1073742337</internalNodes>
          <leafValues>
            -7.5293409824371338e-01 7.6729458570480347e-01</leafValues></_>
        <_>
          <internalNodes>
            0 -1 55 -212082689 -46983713 -1078666241 -149669 -1129318657
            -4456451 -17912129 -1058080321</internalNodes>
          <leafValues>
            -7.1944510936737061e-01 7.3697572946548462e-01</leafValues></_></weakClassifiers></_>
    <!-- stage 3 -->
    <_>
      <maxWeakCount>3</maxWeakCount>
      <stageThreshold>-7.4731653928756714e-01</stageThreshold>
      <weakClassifiers>
        <_>
          <internalNodes>
            0 -1 92 -1 532414463 -1 805306367 -1 -1073741825 -1
            -1073741825</internalNodes>
          <leafValues>
            -7.0657157897949219e-01 7.5673651695251465e-01</leafValues></_>
        <_>
          <internalNodes>
            0 -1 50 1073692671 -1241515073 -2654209 -1081148421 -180241
            -1311761 -268731457 -1073790977</internalNodes>
          <leafValues>
            -7.5793385505676270e-01 7.0160734653472900e-01</leafValues></_>
        <_>
          <internalNodes>
            0 -1 42 -262145 -202376225 -1150288897 -9505 -335545345
            -4199969 -1074151425 -268677771</internalNodes>
          <leafValues>
            -7.0910865068435669e-01 7.1718889474868774e-01</leafValues></_></weakClassifiers></_>
    <!-- stage 4 -->
    <_>
      <maxWeakCount>3</maxWeakCount>
      <stageThreshold>-7.5190442800521851e-01</stageThreshold>
      <weakClassifiers>
        <_>
          <internalNodes>
            0 -1 14 -35913729 -551817997 -60820481 -746073713 2079022175
            2047040139 1942973295 -67142657</internalNodes>
          <leafValues>
            -7.4535208940505981e-01 6.8461537361145020e-01</leafValues></_>
        <_>
          <internalNodes>
            0 -1 78 -17 -1342177281 -9 -1 -1 2147483647 -1 -1</internalNodes>
          <leafValues>
            -6.1858963966369629e-01 7.3427069187164307e-01</leafValues></_>
        <_>
          <internalNodes>
            0 -1 69 -268437633 -6440961 -1124889 -1 -1175749673
            -71321121 -402669569 -1359205004</internalNodes>
          <leafValues>
            -7.0892763137817383e-01 6.1203730106353760e-01</leafValues></_></weakClassifiers></_>
    <!-- stage 5 -->
    <_>
      <maxWeakCount>4</maxWeakCount>
      <stageThreshold>-1.3544796705245972e+00</stageThreshold>
      <weakClassifiers>
        <_>
          <internalNodes>
            0 -1 9 -136315413 -35916598 -888420361 -2099769 -39922689
            -813123073 1120105303 -134744201</internalNodes>
          <leafValues>
            -7.0618855953216553e-01 6.3867861032485962e-01</leafValues></_>
        <_>
          <internalNodes>
            0 -1 108 -33554433 1069285110 -49164048 -1280060265
            -251274595 -1199189791 -305406830 -1074005249</internalNodes>
          <leafValues>
            -6.5804624557495117e-01 6.5297842025756836e-01</leafValues></_>
        <_>
          <internalNodes>
            0 -1 73 1035419647 -1073894913 -79184137 -1209286689
            -1090551881 -1573702 -9285 -1073790993</internalNodes>
          <leafValues>
            -6.9362920522689819e-01 5.4921090602874756e-01</leafValues></_>
        <_>
          <internalNodes>
            0 -1 75 -73542467 -577065 -75400673 -1050365 -1300047154
            -5789030 -22041858 -386940929</internalNodes>
          <leafValues>
            -6.0764032602310181e-01 5.9957897663116455e-01</leafValues></_></weakClassifiers></_>
    <!-- stage 6 -->
    <_>
      <maxWeakCount>5</maxWeakCount>
      <stageThreshold>-8.0477088689804077e-01</stageThreshold>
      <weakClassifiers>
        <_>
          <internalNodes>
            0 -1 99 -1078394883 -1073741843 -1 -1073741857 -1 -1
            -1073741825 -1073758209</internalNodes>
          <leafValues>
            -5.8743959665298462e-01 7.2163742780685425e-01</leafValues></_>
        <_>
          <internalNodes>
            0 -1 61 -100861955 -67633185 -542115083 -1089 -6340609
            -266433 -33570849 -1128514252</internalNodes>
          <leafValues>
            -7.0241671800613403e-01 5.7233297824859619e-01</leafValues></_>
        <_>
          <internalNodes>
            0 -1 40 -262145 -646061009 -632829365 -844116233 -310641667
            -473301025 -544246273 -1073790993</internalNodes>
          <leafValues>
            -6.2160545587539673e-01 5.7538866996765137e-01</leafValues></_>
        <_>
          <internalNodes>
            0 -1 107 -241 -33554497 -16781313 150601727 -18882866
            -33554449 -16786177 -184549377</internalNodes>
          <leafValues>
            -5.8971726894378662e-01 6.4137315750122070e-01</leafValues></_>
        <_>
          <internalNodes>
            0 -1 59 1073709053 1038958558 -6357505 -1147061017
            2062516221 -19009575 -52084787 -1096140601</internalNodes>
          <leafValues>
            -6.8188267946243286e-01 4.9941408634185791e-01</leafValues></_></weakClassifiers></_>
    <!-- stage 7 -->
    <_>
      <maxWeakCount>5</maxWeakCount>
      <stageThreshold>-1.0238142013549805e+00</stageThreshold>
      <weakClassifiers>
        <_>
          <internalNodes>
            0 -1 72 -2490373 1067578690 -183006864 -1076374071
            -410985521 956865668 -629106517 1066373790</internalNodes>
          <leafValues>
            -6.5681159496307373e-01 6.0756015777587891e-01</leafValues></_>
        <_>
          <internalNodes>
            0 -1 3 -786437 -14 -65561 -77 -1 -1 -262177 -2099337</internalNodes>
          <leafValues>
            -5.4839324951171875e-01 6.6479939222335815e-01</leafValues></_>
        <_>
          <internalNodes>
            0 -1 67 -33694507 -545259532 -553656579 -34849 -16777524
            -65793 -18874626 -119537697</internalNodes>
          <leafValues>
            -5.1640820503234863e-01 5.9190905094146729e-01</leafValues></_>
        <_>
          <internalNodes>
            0 -1 21 -600507681 -574502704 1896717087 -1119813231
            1760708862 2122982624 1258982396 2139869839</internalNodes>
          <leafValues>
            -7.8067189455032349e-01 4.0400472283363342e-01</leafValues></_>
        <_>
          <internalNodes>
            0 -1 106 -680007704 -1257119487 -1056914176 229899762
            -262089206 -721354752 -805203133 620753903</internalNodes>
          <leafValues>
            -8.1452316045761108e-01 3.4552946686744690e-01</leafValues></_></weakClassifiers></_>
    <!-- stage 8 -->
    <_>
      <maxWeakCount>5</maxWeakCount>
      <stageThreshold>-1.0492920875549316e+00</stageThreshold>
      <weakClassifiers>
        <_>
          <internalNodes>
            0 -1 54 -971915244 -586997679 269504529 -1650392821
            -1140287336 -1096220503 -1442273110 9153147</internalNodes>
          <leafValues>
            -7.5846832990646362e-01 5.0808668136596680e-01</leafValues></_>
        <_>
          <internalNodes>
            0 -1 17 -75511586 -49281 -566297922 -98311 -180484952 -32769
            -196961 -8193</internalNodes>
          <leafValues>
            -5.6628382205963135e-01 6.0644263029098511e-01</leafValues></_>
        <_>
          <internalNodes>
            0 -1 94 -740556862 -1692168062 1157644702 -175423168
            -754802423 -2145763328 -2147368757 -69343541</internalNodes>
          <leafValues>
            -5.6596016883850098e-01 5.5033874511718750e-01</leafValues></_>
        <_>
          <internalNodes>
            0 -1 29 -214829089 -10960871 -1342074496 269516800
            -1817599798 1068007554 671121536 2055899265</internalNodes>
          <leafValues>
            -6.8205434083938599e-01 4.6280813217163086e-01</leafValues></_>
        <_>
          <internalNodes>
            0 -1 103 -267993082 -749530606 1090519173 1561444674
            1342236688 -1878981111 -1040150133 7332767</internalNodes>
          <leafValues>
            -7.4353688955307007e-01 3.7861210107803345e-01</leafValues></_></weakClassifiers></_>
    <!-- stage 9 -->
    <_>
      <maxWeakCount>7</maxWeakCount>
      <stageThreshold>-1.0202959775924683e+00</stageThreshold>
      <weakClassifiers>
        <_>
          <internalNodes>
            0 -1 28 -788270353 -767442789 1073991690 -1857961841
            1279808698 1073770703 1077957339 1371761611</internalNodes>
          <leafValues>
            -6.8038409948348999e-01 5.1211833953857422e-01</leafValues></_>
        <_>
          <internalNodes>
            0 -1 81 -136446214 -1148479328 -1877655528 -707323575
            -1845321575 -125403006 -2130689906 -74595953</internalNodes>
          <leafValues>
            -5.5039888620376587e-01 5.3708887100219727e-01</leafValues></_>
        <_>
          <internalNodes>
            0 -1 24 -771499622 -182988606 67178715 1976256929
            -1073182546 -1333098357 -930969969 -204521193</internalNodes>
          <leafValues>
            -5.7919615507125854e-01 4.9342086911201477e-01</leafValues></_>
        <_>
          <internalNodes>
            0 -1 102 -25178930 -67121681 -1073807363 -539103249
            -287375778 -74035 -855712018 -118501877</internalNodes>
          <leafValues>
            -4.3632170557975769e-01 5.5355918407440186e-01</leafValues></_>
        <_>
          <internalNodes>
            0 -1 37 -77668098 -8519697 -1292996994 2130706430 -549565204
            -557121 -1234280469 -32769</internalNodes>
          <leafValues>
            -4.5485445857048035e-01 5.3560084104537964e-01</leafValues></_>
        <_>
          <internalNodes>
            0 -1 27 -1461618486 94416906 -575594208 -573603415
            1523375051 1357480223 -1332835628 -148665881</internalNodes>
          <leafValues>
            -6.5744560956954956e-01 3.3793637156486511e-01</leafValues></_>
        <_>
          <internalNodes>
            0 -1 112 -202905664 1031918018 688914688 53690699 687865984
            -2130587643 -1006582645 257683899</internalNodes>
          <leafValues>
            -6.6411161422729492e-01 3.5246759653091431e-01</leafValues></_></weakClassifiers></_>
    <!-- stage 10 -->
    <_>
      <maxWeakCount>4</maxWeakCount>
      <stageThreshold>-1.3569358587265015e+00</stageThreshold>
      <weakClassifiers>
        <_>
          <internalNodes>
            0 -1 16 -537395201 -301072385 -211096705 -361632367
            2116765279 2061597171 -84705281 -2393361</internalNodes>
          <leafValues>
            -6.6507178544998169e-01 5.8960515260696411e-01</leafValues></_>
        <_>
          <internalNodes>
            0 -1 76 -8913697 -6723633 -250128513 -6859282 -76087298
            -4516325 -18284801 -520159297</internalNodes>
          <leafValues>
            -6.8575066328048706e-01 4.8327681422233582e-01</leafValues></_>
        <_>
          <internalNodes>
            0 -1 79 1069154257 -1107316008 -1757216041 -1116751412
            -1147151361 -98328413 -1075061521 -1141907473</internalNodes>
          <leafValues>
            -6.3962543010711670e-01 4.5109665393829346e-01</leafValues></_>
        <_>
          <internalNodes>
            0 -1 38 -1416841368 -382479704 -1534252641 -79245039
            -1001794625 -238051189 -209464881 -302002891</internalNodes>
          <leafValues>
            -6.2116491794586182e-01 4.0706828236579895e-01</leafValues></_></weakClassifiers></_>
    <!-- stage 11 -->
    <_>
      <maxWeakCount>6</maxWeakCount>
      <stageThreshold>-1.3142865896224976e+00</stageThreshold>
      <weakClassifiers>
        <_>
          <internalNodes>
            0 -1 93 -1029 -1615069254 -67 -833 -1 -1 -5 -1</internalNodes>
          <leafValues>
            -4.1206896305084229e-01 6.8725699186325073e-01</leafValues></_>
        <_>
          <internalNodes>
            0 -1 1 -71319557 -85 -1 -29 -1 -1 -33554437 -34825</internalNodes>
          <leafValues>
            -4.7742581367492676e-01 6.0918921232223511e-01</leafValues></_>
        <_>
          <internalNodes>
            0 -1 41 1566177265 1073600345 1015566847 1065713856
            1590023421 2146275528 -1968928598 2058078601</internalNodes>
          <leafValues>
            -7.9849755764007568e-01 3.3369469642639160e-01</leafValues></_>
        <_>
          <internalNodes>
            0 -1 82 -8489 -35651841 -269484033 -537153537 -553648418
            -513 -16777985 -16777473</internalNodes>
          <leafValues>
            -4.2995062470436096e-01 5.9188389778137207e-01</leafValues></_>
        <_>
          <internalNodes>
            0 -1 48 -14108168 -612515411 -527323745 -543164643
            -489949187 -305293681 -2027426913 -823173275</internalNodes>
          <leafValues>
            -6.0556256771087646e-01 3.6104080080986023e-01</leafValues></_>
        <_>
          <internalNodes>
            0 -1 8 -2082831730 -658120474 1074434142 1374144770
            -2078571362 -528236341 1346586639 2137423623</internalNodes>
          <leafValues>
            -7.2470474243164063e-01 3.2260394096374512e-01</leafValues></_></weakClassifiers></_>
    <!-- stage 12 -->
    <_>
      <maxWeakCount>6</maxWeakCount>
      <stageThreshold>-1.2867958545684814e+00</stageThreshold>
      <weakClassifiers>
        <_>
          <internalNodes>
            0 -1 83 -42207265 1033621968 1888590665 1039003933
            -489645891 919989507 -1067007163 1006622899</internalNodes>
          <leafValues>
            -6.6170710325241089e-01 4.4073852896690369e-01</leafValues></_>
        <_>
          <internalNodes>
            0 -1 34 -820802605 1604001817 101977471 -545186793
            -1364293234 -1190197093 -1398163013 1964502783</internalNodes>
          <leafValues>
            -7.2676056623458862e-01 3.4116360545158386e-01</leafValues></_>
        <_>
          <internalNodes>
            0 -1 0 -695282046 1357889602 69847 -723824139 -1605728085
            -2138856819 1220645067 -1574937</internalNodes>
          <leafValues>
            -5.3416353464126587e-01 4.3515372276306152e-01</leafValues></_>
        <_>
          <internalNodes>
            0 -1 88 -1215758340 -1082329804 -785590945 -1077925285
            -1310862033 -876349375 -1147789240 -1176819291</internalNodes>
          <leafValues>
            -5.5871874094009399e-01 3.9403632283210754e-01</leafValues></_>
        <_>
          <internalNodes>
            0 -1 101 1153910876 -657400806 1107417818 -1727719278
            -268353518 -891371516 -892188544 -28320048</internalNodes>
          <leafValues>
            -5.1491135358810425e-01 3.7453401088714600e-01</leafValues></_>
        <_>
          <internalNodes>
            0 -1 119 -11012410 -1009255001 1715781792 1862139038
            -147402687 788343937 -618761590 -203451045</internalNodes>
          <leafValues>
            -4.6090438961982727e-01 4.3023335933685303e-01</leafValues></_></weakClassifiers></_>
    <!-- stage 13 -->
    <_>
      <maxWeakCount>7</maxWeakCount>
      <stageThreshold>-7.3523157835006714e-01</stageThreshold>
      <weakClassifiers>
        <_>
          <internalNodes>
            0 -1 111 -5255730 -269488154 -1048926 -1048660 -17170509
            1610577919 -131082 -1</internalNodes>
          <leafValues>
            -4.6695095300674438e-01 5.4766219854354858e-01</leafValues></_>
        <_>
          <internalNodes>
            0 -1 31 -50402562 -129 -17379714 -1 -1161526 2147450879
            -21037062 -1</internalNodes>
          <leafValues>
            -4.5969763398170471e-01 4.8886594176292419e-01</leafValues></_>
        <_>
          <internalNodes>
            0 -1 10 -753402386 -750509844 -1648523786 -686321155
            -374616865 -1091588869 -1481970698 -135550773</internalNodes>
          <leafValues>
            -5.1734894514083862e-01 4.4788375496864319e-01</leafValues></_>
        <_>
          <internalNodes>
            0 -1 104 -202914082 -212393955 1924338587 -178822409
            -221330766 -234766196 -161230689 -155189556</internalNodes>
          <leafValues>
            -4.4219666719436646e-01 4.9377518892288208e-01</leafValues></_>
        <_>
          <internalNodes>
            0 -1 53 -1213268483 -1218549013 -486440485 -544030213
            -360778785 -1047801781 -1709180257 -1090542799</internalNodes>
          <leafValues>
            -4.9141538143157959e-01 3.6759340763092041e-01</leafValues></_>
        <_>
          <internalNodes>
            0 -1 56 -68395532 -1849078967 -1040006200 -2063449398
            -73972022 -1056795634 -892468765 1001341597</internalNodes>
          <leafValues>
            -5.1721894741058350e-01 3.8923665881156921e-01</leafValues></_>
        <_>
          <internalNodes>
            0 -1 96 215965045 785335389 -448702707 -1470450699
            -280022991 -1494478795 2074771773 -488055144</internalNodes>
          <leafValues>
            -5.2641385793685913e-01 3.6461633443832397e-01</leafValues></_></weakClassifiers></_>
    <!-- stage 14 -->
    <_>
      <maxWeakCount>8</maxWeakCount>
      <stageThreshold>-1.3275262117385864e+00</stageThreshold>
      <weakClassifiers>
        <_>
          <internalNodes>
            0 -1 35 -562043137 -202390401 -1610558987 -8283639 -99004724
            1887830040 -886998069 -71303797</internalNodes>
          <leafValues>
            -4.0909090638160706e-01 5.1367115974426270e-01</leafValues></_>
        <_>
          <internalNodes>
            0 -1 90 -229771401 -133048319 1126383633 -582750189
            -531377919 -268336896 -805080277 268433395</internalNodes>
          <leafValues>
            -7.2222352027893066e-01 2.9893085360527039e-01</leafValues></_>
        <_>
          <internalNodes>
            0 -1 65 -728244672 -608632494 -1811869313 -1122565581
            -1736267768 -92036862 -1174232358 -1162093941</internalNodes>
          <leafValues>
            -4.8750454187393188e-01 4.0468791127204895e-01</leafValues></_>
        <_>
          <internalNodes>
            0 -1 19 -120201554 -787867553 -1207813054 -123760377
            -775108018 2057472530 1620477678 -211825437</internalNodes>
          <leafValues>
            -4.4685238599777222e-01 4.1552084684371948e-01</leafValues></_>
        <_>
          <internalNodes>
            0 -1 60 1456983760 498795840 50364421 1032114198 985714882
            734036169 1510183312 2141437999</internalNodes>
          <leafValues>
            -5.7440149784088135e-01 2.9895937442779541e-01</leafValues></_>
        <_>
          <internalNodes>
            0 -1 44 -1450125204 -1555319928 151732277 -642546992
            -341400915 -1463162805 -1556361222 -1343493507</internalNodes>
          <leafValues>
            -5.6414127349853516e-01 2.9115200042724609e-01</leafValues></_>
        <_>
          <internalNodes>
            0 -1 120 -16520352 621491991 -788176768 -432856254 440537254
            1794484480 -1927089693 -957912499</internalNodes>
          <leafValues>
            -4.9638900160789490e-01 3.3404892683029175e-01</leafValues></_>
        <_>
          <internalNodes>
            0 -1 116 -610085568 -113882836 -753054703 -1860146096
            -1104534127 -815380392 1079431928 8395336</internalNodes>
          <leafValues>
            -3.7070778012275696e-01 4.6151295304298401e-01</leafValues></_></weakClassifiers></_>
    <!-- stage 15 -->
    <_>
      <maxWeakCount>9</maxWeakCount>
      <stageThreshold>-9.8870736360549927e-01</stageThreshold>
      <weakClassifiers>
        <_>
          <internalNodes>
            0 -1 7 -173156674 -792279853 -796370660 -640953961
            -758652161 -334911473 1782839391 1901552503</internalNodes>
          <leafValues>
            -6.2334215641021729e-01 3.8242009282112122e-01</leafValues></_>
        <_>
          <internalNodes>
            0 -1 68 -41944069 -1077939792 2139094967 -167804932 -1
            -1342177286 -1 -8486913</internalNodes>
          <leafValues>
            -4.0487170219421387e-01 5.0235396623611450e-01</leafValues></_>
        <_>
          <internalNodes>
            0 -1 113 -127155188 -182075136 1921052722 8358406 -185671000
            -133475997 -358427937 -266879029</internalNodes>
          <leafValues>
            -5.1512509584426880e-01 3.3805927634239197e-01</leafValues></_>
        <_>
          <internalNodes>
            0 -1 36 -89393246 -1249336 -458765 -4063245 -97257481
            -22020098 -45744149 -805309001</internalNodes>
          <leafValues>
            -3.7805095314979553e-01 4.4952467083930969e-01</leafValues></_>
        <_>
          <internalNodes>
            0 -1 18 -161774854 -1022312369 -1341909966 1552121873
            -318111616 -209006143 -670516482 -37031029</internalNodes>
          <leafValues>
            -5.0243508815765381e-01 3.2741951942443848e-01</leafValues></_>
        <_>
          <internalNodes>
            0 -1 109 -159304558 -1649741784 268801365 1912459473
            -1069509414 8388608 -1060715800 -74458550</internalNodes>
          <leafValues>
            -5.3703469038009644e-01 2.8569376468658447e-01</leafValues></_>
        <_>
          <internalNodes>
            0 -1 87 444423895 710228437 985895515 -1426543812 465393085
            -1141677273 2021644791 -324225356</internalNodes>
          <leafValues>
            -4.5723161101341248e-01 3.5788834095001221e-01</leafValues></_>
        <_>
          <internalNodes>
            0 -1 45 -260092685 -730490531 -1461528610 -263624433
            -2147202960 -387626340 -1298089053 -1871514998</internalNodes>
          <leafValues>
            -4.1630300879478455e-01 3.8045412302017212e-01</leafValues></_>
        <_>
          <internalNodes>
            0 -1 74 -736669476 -711818605 34669331 1369117121
            -1878809960 -1643437425 -99972385 2057274266</internalNodes>
          <leafValues>
            -4.6246367692947388e-01 3.4752804040908813e-01</leafValues></_></weakClassifiers></_>
    <!-- stage 16 -->
    <_>
      <maxWeakCount>10</maxWeakCount>
      <stageThreshold>-1.1626545190811157e+00</stageThreshold>
      <weakClassifiers>
        <_>
          <internalNodes>
            0 -1 110 -138262 1710227437 -9502958 -1065041 -15204449
            1476395007 2130706431 -141557794</internalNodes>
          <leafValues>
            -3.7318435311317444e-01 4.5799648761749268e-01</leafValues></_>
        <_>
          <internalNodes>
            0 -1 12 -545814306 1342300995 1342317618 -1021930745
            1913937146 -939522047 981618760 -242255185</internalNodes>
          <leafValues>
            -6.3067668676376343e-01 2.6511839032173157e-01</leafValues></_>
        <_>
          <internalNodes>
            0 -1 85 -1079976240 -637206572 -17367083 -170586320
            -1569476938 -37750803 -1401847933 -1074505258</internalNodes>
          <leafValues>
            -3.6174818873405457e-01 3.9775878190994263e-01</leafValues></_>
        <_>
          <internalNodes>
            0 -1 55 1895895707 -179613546 -1862184687 487424275
            841191048 -98893813 168782495 -1063536725</internalNodes>
          <leafValues>
            -5.7040798664093018e-01 2.6977524161338806e-01</leafValues></_>
        <_>
          <internalNodes>
            0 -1 49 -151094072 -250648096 -909815109 -1795054965
            -503303734 -2004164601 -1593038149 -1345702994</internalNodes>
          <leafValues>
            -5.2445274591445923e-01 2.7000978589057922e-01</leafValues></_>
        <_>
          <internalNodes>
            0 -1 39 -905310174 -922189758 -1602011037 -653491166
            -1709176201 -381574496 -1978572662 -827623257</internalNodes>
          <leafValues>
            -3.8649243116378784e-01 3.6358949542045593e-01</leafValues></_>
        <_>
          <internalNodes>
            0 -1 97 -1180960848 -101926550 1575968185 -674127779
            -1073774625 -19464361 385734049 -585711468</internalNodes>
          <leafValues>
            -3.2831367850303650e-01 4.3643987178802490e-01</leafValues></_>
        <_>
          <internalNodes>
            0 -1 66 1804591039 236412831 -695339075 -1908885095
            2119908223 -1087510613 -290748123 -390799388</internalNodes>
          <leafValues>
            -4.4287881255149841e-01 3.1383612751960754e-01</leafValues></_>
        <_>
          <internalNodes>
            0 -1 23 -1142542558 -889143502 1852600113 -174393150
            -429070198 1294821329 -1355517813 973533291</internalNodes>
          <leafValues>
            -3.3771759271621704e-01 4.2846673727035522e-01</leafValues></_>
        <_>
          <internalNodes>
            0 -1 98 1477640406 -573036767 -1038736364 1894202835
            -1203187582 -851330792 -400617336 -101757269</internalNodes>
          <leafValues>
            -4.3736213445663452e-01 3.2879418134689331e-01</leafValues></_></weakClassifiers></_>
    <!-- stage 17 -->
    <_>
      <maxWeakCount>10</maxWeakCount>
      <stageThreshold>-1.2648664712905884e+00</stageThreshold>
      <weakClassifiers>
        <_>
          <internalNodes>
            0 -1 105 -204087038 -799702829 -750759649 -1913535725
            1778738567 -250609632 -796806061 150338538</internalNodes>
          <leafValues>
            -6.9334834814071655e-01 3.3351120352745056e-01</leafValues></_>
        <_>
          <internalNodes>
            0 -1 30 -646460182 -603945781 -1844934442 -1853631961
            1405615916 -1174233073 -206968149 -208539025</internalNodes>
          <leafValues>
            -4.4626602530479431e-01 3.4039691090583801e-01</leafValues></_>
        <_>
          <internalNodes>
            0 -1 4 1267703115 -1688352646 -2144842225 -1961412221
            -1876262769 -1733689206 -1996126017 1731691383</internalNodes>
          <leafValues>
            -6.2920773029327393e-01 2.8012996912002563e-01</leafValues></_>
        <_>
          <internalNodes>
            0 -1 70 -570953239 1002423689 -2126395052 1036421267
            -627385845 2081980564 -397311985 938631496</internalNodes>
          <leafValues>
            -6.2794411182403564e-01 2.2070984542369843e-01</leafValues></_>
        <_>
          <internalNodes>
            0 -1 63 932412279 44008823 -748976325 -1594256740 748371317
            -343714914 -1180008699 -54732812</internalNodes>
          <leafValues>
            -4.6055990457534790e-01 3.0210649967193604e-01</leafValues></_>
        <_>
          <internalNodes>
            0 -1 57 488662160 -316657709 -2023851013 -2125480203
            -1620431445 -1120428037 1073479098 -1147206275</internalNodes>
          <leafValues>
            -3.5463070869445801e-01 3.8854834437370300e-01</leafValues></_>
        <_>
          <internalNodes>
            0 -1 46 -67998474 -789678648 -1646219309 1112932781
            -1865096050 -984964521 -1916601687 1488525898</internalNodes>
          <leafValues>
            -3.8356953859329224e-01 3.5947325825691223e-01</leafValues></_>
        <_>
          <internalNodes>
            0 -1 71 112732967 713966020 -31567529 41742880 480258852
            2147102475 -1350349275 -922945228</internalNodes>
          <leafValues>
            -5.9126728773117065e-01 2.5515541434288025e-01</leafValues></_>
        <_>
          <internalNodes>
            0 -1 33 -358038894 1327853154 2051236996 297675280
            1143938573 1549139824 -635551281 -1667238677</internalNodes>
          <leafValues>
            -3.4234887361526489e-01 4.1418865323066711e-01</leafValues></_>
        <_>
          <internalNodes>
            0 -1 118 -172279948 -417202198 -272649662 -12750864
            -151433231 511573687 -545963211 -778586700</internalNodes>
          <leafValues>
            -3.6699789762496948e-01 4.0433615446090698e-01</leafValues></_></weakClassifiers></_>
    <!-- stage 18 -->
    <_>
      <maxWeakCount>10</maxWeakCount>
      <stageThreshold>-1.0114502906799316e+00</stageThreshold>
      <weakClassifiers>
        <_>
          <internalNodes>
            0 -1 32 -183238913 -241568640 1075872927 805337216 998789050
            227049610 1787391723 2144926345</internalNodes>
          <leafValues>
            -5.9409594535827637e-01 3.6018022894859314e-01</leafValues></_>
        <_>
          <internalNodes>
            0 -1 5 -1743021602 -707067428 475365725 -585250429
            -2012720419 -1953529665 -1904113507 -1492670377</internalNodes>
          <leafValues>
            -6.1184298992156982e-01 2.3195178806781769e-01</leafValues></_>
        <_>
          <internalNodes>
            0 -1 115 -241718342 -1340038776 1359157257 -174390072
            -364711741 562038787 -1059011890 -604768033</internalNodes>
          <leafValues>
            -3.8999855518341064e-01 3.8587480783462524e-01</leafValues></_>
        <_>
          <internalNodes>
            0 -1 51 1474156976 1035545948 -1073559523 526059922
            -385777526 1019331232 -2139043200 2140545167</internalNodes>
          <leafValues>
            -6.7927938699722290e-01 1.8601427972316742e-01</leafValues></_>
        <_>
          <internalNodes>
            0 -1 84 -1214588048 -589047180 -700522508 -705509516
            -1376784949 -1094713921 526384208 -1393556336</internalNodes>
          <leafValues>
            -3.4109172224998474e-01 3.7685126066207886e-01</leafValues></_>
        <_>
          <internalNodes>
            0 -1 13 -532030977 -250019637 419745840 -1851977697
            953058751 985694251 -1816033549 -240674641</internalNodes>
          <leafValues>
            -4.1473147273063660e-01 3.1542560458183289e-01</leafValues></_>
        <_>
          <internalNodes>
            0 -1 117 -545043862 2146652086 1828713902 -226635905
            1802945540 -1035584188 -303821304 -75759697</internalNodes>
          <leafValues>
            -3.5339534282684326e-01 3.7393501400947571e-01</leafValues></_>
        <_>
          <internalNodes>
            0 -1 95 -755508686 -1300082406 273368080 -782351920
            136339603 -2147409784 -1593800561 -305307249</internalNodes>
          <leafValues>
            -3.9472559094429016e-01 3.3243453502655029e-01</leafValues></_>
        <_>
          <internalNodes>
            0 -1 11 -2139230176 -1677447164 1887535106 1847564418
            1224851882 1611270186 311456402 -1176254001</internalNodes>
          <leafValues>
            -4.2293691635131836e-01 2.9099786281585693e-01</leafValues></_>
        <_>
          <internalNodes>
            0 -1 26 404687351 -841676076 150994949 -1719566015
            -1861705313 1104667524 -1853781877 1404028171</internalNodes>
          <leafValues>
            -8.1138360500335693e-01 1.3910174369812012e-01</leafValues></_></weakClassifiers></_>
    <!-- stage 19 -->
    <_>
      <maxWeakCount>12</maxWeakCount>
      <stageThreshold>-8.1804490089416504e-01</stageThreshold>
      <weakClassifiers>
        <_>
          <internalNodes>
            0 -1 114 -7353184 132286538 -1878982384 -280424196
            1116374461 1610714255 -518946321 -841223441</internalNodes>
          <leafValues>
            -4.3504533171653748e-01 3.6575052142143250e-01</leafValues></_>
        <_>
          <internalNodes>
            0 -1 47 -118892620 -1827164093 570896387 -725778422
            1418449115 -2146303872 -926243921 -67166923</internalNodes>
          <leafValues>
            -4.7111573815345764e-01 2.6653188467025757e-01</leafValues></_>
        <_>
          <internalNodes>
            0 -1 15 -500569349 -535665296 1090700707 -2147155776
            1628653787 -1600106488 1762288267 -358083941</internalNodes>
          <leafValues>
            -5.4190468788146973e-01 2.6447665691375732e-01</leafValues></_>
        <_>
          <internalNodes>
            0 -1 22 323152026 -918274030 -2139055046 -193417210
            -1459191672 362594306 1209065646 -284643229</internalNodes>
          <leafValues>
            -3.5185506939888000e-01 3.6048406362533569e-01</leafValues></_>
        <_>
          <internalNodes>
            0 -1 43 1079441556 819581620 268438553 684322 1745486002
            2023916680 151100032 1795936291</internalNodes>
          <leafValues>
            -6.6433602571487427e-01 1.6750505566596985e-01</leafValues></_>
        <_>
          <internalNodes>
            0 -1 80 -399517162 -604648821 1559325813 -581579581
            -288536000 -1235296556 -596451655 -1092650754</internalNodes>
          <leafValues>
            -3.2394313812255859e-01 3.5403043031692505e-01</leafValues></_>
        <_>
          <internalNodes>
            0 -1 64 188171755 801887411 814406743 -453885089 1758148439
            1059383403 -550970507 -1734284363</internalNodes>
          <leafValues>
            -4.5501333475112915e-01 2.4701699614524841e-01</leafValues></_>
        <_>
          <internalNodes>
            0 -1 52 -2732816 -1401535644 -427782417 -1842583396
            -163011440 -1739992348 -1461651328 -1660907740</internalNodes>
          <leafValues>
            -3.5428243875503540e-01 3.4214726090431213e-01</leafValues></_>
        <_>
          <internalNodes>
            0 -1 89 -1833902124 -639705552 -687660752 -443195024
            -1204236279 -1180908543 -1598324606 -1117167590</internalNodes>
          <leafValues>
            -3.4150737524032593e-01 3.4586712718009949e-01</leafValues></_>
        <_>
          <internalNodes>
            0 -1 86 -1560474032 1061035086 1052684220 234867824
            -168532204 -570433666 -23479201 -1086682021</internalNodes>
          <leafValues>
            -3.1897845864295959e-01 3.6079922318458557e-01</leafValues></_>
        <_>
          <internalNodes>
            0 -1 62 382146423 62150127 -884321789 651650700 1759204101
            -505069417 719274341 1493722976</internalNodes>
          <leafValues>
            -5.6326818466186523e-01 2.1113802492618561e-01</leafValues></_>
        <_>
          <internalNodes>
            0 -1 100 -719393280 1510123922 605089156 1282798086
            152017064 336109729 1686456337 -1824014226</internalNodes>
          <leafValues>
            -3.8456401228904724e-01 3.1194809079170227e-01</leafValues></_></weakClassifiers></_></stages>
  <features>
    <_>
      <rect>
        0 0 4 8</rect></_>
    <_>
      <rect>
        0 0 5 7</rect></_>
    <_>
      <rect>
        0 0 5 10</rect></_>
    <_>
      <rect>
        0 0 7 5</rect></_>
    <_>
      <rect>
        0 0 9 5</rect></_>
    <_>
      <rect>
        0 0 10 4</rect></_>
    <_>
      <rect>
        0 0 13 13</rect></_>
    <_>
      <rect>
        0 2 4 9</rect></_>
    <_>
      <rect>
        0 5 3 9</rect></_>
    <_>
      <rect>
        0 5 5 5</rect></_>
    <_>
      <rect>
        0 10 4 1</rect></_>
    <_>
      <rect>
        0 11 2 2</rect></_>
    <_>
      <rect>
        0 12 3 9</rect></_>
    <_>
      <rect>
        0 12 4 1</rect></_>
    <_>
      <rect>
        0 13 5 9</rect></_>
    <_>
      <rect>
        0 16 5 8</rect></_>
    <_>
      <rect>
        0 19 6 7</rect></_>
    <_>
      <rect>
        0 22 4 6</rect></_>
    <_>
      <rect>
        0 25 4 5</rect></_>
    <_>
      <rect>
        0 26 3 1</rect></_>
    <_>
      <rect>
        0 28 10 4</rect></_>
    <_>
      <rect>
        0 30 11 3</rect></_>
    <_>
      <rect>
        0 31 3 3</rect></_>
    <_>
      <rect>
        1 0 4 2</rect></_>
    <_>
      <rect>
        1 0 7 5</rect></_>
    <_>
      <rect>
        1 0 10 4</rect></_>
    <_>
      <rect>
        1 7 13 7</rect></_>
    <_>
      <rect>
        1 8 4 1</rect></_>
    <_>
      <rect>
        1 10 4 10</rect></_>
    <_>
      <rect>
        1 25 13 5</rect></_>
    <_>
      <rect>
        1 26 3 2</rect></_>
    <_>
      <rect>
        1 28 5 4</rect></_>
    <_>
      <rect>
        1 28 9 4</rect></_>
    <_>
      <rect>
        2 1 3 2</rect></_>
    <_>
      <rect>
        2 1 12 4</rect></_>
    <_>
      <rect>
        2 28 6 4</rect></_>
    <_>
      <rect>
        4 0 6 3</rect></_>
    <_>
      <rect>
        4 31 5 3</rect></_>
    <_>
      <rect>
        6 1 3 4</rect></_>
    <_>
      <rect>
        6 1 4 2</rect></_>
    <_>
      <rect>
        6 3 1 12</rect></_>
    <_>
      <rect>
        7 31 10 3</rect></_>
    <_>
      <rect>
        9 1 2 5</rect></_>
    <_>
      <rect>
        9 34 7 2</rect></_>
    <_>
      <rect>
        10 0 1 4</rect></_>
    <_>
      <rect>
        10 33 1 1</rect></_>
    <_>
      <rect>
        10 35 1 1</rect></_>
    <_>
      <rect>
        11 0 1 4</rect></_>
    <_>
      <rect>
        11 0 2 4</rect></_>
    <_>
      <rect>
        11 31 1 3</rect></_>
    <_>
      <rect>
        12 25 1 5</rect></_>
    <_>
      <rect>
        12 31 9 3</rect></_>
    <_>
      <rect>
        12 35 1 1</rect></_>
    <_>
      <rect>
        13 0 1 4</rect></_>
    <_>
      <rect>
        13 0 9 4</rect></_>
    <_>
      <rect>
        13 0 9 5</rect></_>
    <_>
      <rect>
        13 31 1 3</rect></_>
    <_>
      <rect>
        14 2 1 1</rect></_>
    <_>
      <rect>
        14 28 8 4</rect></_>
    <_>
      <rect>
        14 30 2 3</rect></_>
    <_>
      <rect>
        15 34 6 2</rect></_>
    <_>
      <rect>
        16 1 1 3</rect></_>
    <_>
      <rect>
        16 13 1 2</rect></_>
    <_>
      <rect>
        16 14 2 2</rect></_>
    <_>
      <rect>
        16 14 3 2</rect></_>
    <_>
      <rect>
        18 0 7 3</rect></_>
    <_>
      <rect>
        18 13 2 2</rect></_>
    <_>
      <rect>
        19 0 7 4</rect></_>
    <_>
      <rect>
        19 31 6 3</rect></_>
    <_>
      <rect>
        20 0 1 4</rect></_>
    <_>
      <rect>
        20 25 6 5</rect></_>
    <_>
      <rect>
        21 18 2 2</rect></_>
    <_>
      <rect>
        21 25 6 5</rect></_>
    <_>
      <rect>
        21 31 1 3</rect></_>
    <_>
      <rect>
        22 0 6 4</rect></_>
    <_>
      <rect>
        22 0 6 5</rect></_>
    <_>
      <rect>
        22 0 6 6</rect></_>
    <_>
      <rect>
        22 22 6 6</rect></_>
    <_>
      <rect>
        22 32 6 1</rect></_>
    <_>
      <rect>
        23 31 3 3</rect></_>
    <_>
      <rect>
        24 1 4 2</rect></_>
    <_>
      <rect>
        24 28 5 4</rect></_>
    <_>
      <rect>
        25 1 5 5</rect></_>
    <_>
      <rect>
        25 19 5 7</rect></_>
    <_>
      <rect>
        25 35 1 1</rect></_>
    <_>
      <rect>
        25 36 1 1</rect></_>
    <_>
      <rect>
        26 3 1 1</rect></_>
    <_>
      <rect>
        26 16 1 2</rect></_>
    <_>
      <rect>
        26 31 1 3</rect></_>
    <_>
      <rect>
        26 36 1 1</rect></_>
    <_>
      <rect>
        27 0 4 13</rect></_>
    <_>
      <rect>
        28 0 4 11</rect></_>
    <_>
      <rect>
        28 10 4 10</rect></_>
    <_>
      <rect>
        28 21 4 6</rect></_>
    <_>
      <rect>
        28 22 4 6</rect></_>
    <_>
      <rect>
        28 28 4 4</rect></_>
    <_>
      <rect>
        29 15 1 2</rect></_>
    <_>
      <rect>
        29 33 1 1</rect></_>
    <_>
      <rect>
        30 7 3 2</rect></_>
    <_>
      <rect>
        30 25 1 5</rect></_>
    <_>
      <rect>
        30 34 3 2</rect></_>
    <_>
      <rect>
        31 0 3 4</rect></_>
    <_>
      <rect>
        31 2 3 6</rect></_>
    <_>
      <rect>
        31 2 3 9</rect></_>
    <_>
      <rect>
        31 3 3 6</rect></_>
    <_>
      <rect>
        31 4 3 9</rect></_>
    <_>
      <rect>
        31 5 3 10</rect></_>
    <_>
      <rect>
        31 8 3 4</rect></_>
    <_>
      <rect>
        31 13 3 9</rect></_>
    <_>
      <rect>
        31 24 3 5</rect></_>
    <_>
      <rect>
        31 26 3 1</rect></_>
    <_>
      <rect>
        31 28 3 1</rect></_>
    <_>
      <rect>
        33 13 2 7</rect></_>
    <_>
      <rect>
        34 10 2 4</rect></_>
    <_>
      <rect>
        34 21 2 3</rect></_>
    <_>
      <rect>
        34 21 2 5</rect></_>
    <_>
      <rect>
        34 31 2 3</rect></_>
    <_>
      <rect>
        35 11 1 1</rect></_>
    <_>
      <rect>
        35 26 1 1</rect></_>
    <_>
      <rect>
        36 18 1 1</rect></_>
    <_>
      <rect>
        36 18 1 3</rect></_></features></cascade>
</opencv_storage>
